tree
version=v2
num_class=1
num_tree_per_iteration=1
label_index=0
max_feature_idx=5
objective=binary sigmoid:1
feature_names=app os channel total_click click_app_channel click_ip_app_os_channel_hour
feature_infos=3:12:2:15:9:18:14:1:13:11:26:21:23:8:6:64:20:25:28:27:24:17:19:29:22:32:10:7:5:151:150:94:55:56:36:4:35:58:37:45:93:33:183:107:65:82:62:208:46:47:72:60:83:117:110:68:125:67:53:43:61:38:109:215:66:95:39:50:103:76:134:16:44:101:363:88:148:52:160:100:75:84:108:181:92:59:232:74:266:78:49:165:170:145:146:233:240:202:104:0:81:91:315:137:273:267:48:42:123:96:155:158:30:176:141:211:122:105:98:86:548:70 19:13:17:18:22:8:10:15:6:9:25:20:16:37:3:14:41:1:12:23:27:35:32:47:11:28:53:30:26:31:36:49:2:40:4:748:42:24:43:0:46:34:58:7:48:38:44:5:56:39:21:65:866:70:29:55:50:52:79:64:66:97:77:62:73:63:96:90:76:109:85:100:57:98:59:83:60:71:67:106:112:69:80:88:61:155:102:81:152:118:117:132:141:145:171:111:110:198:78:68:89:72:84:86:148:95:123:140:92:138 280:245:477:107:134:153:265:259:178:121:205:459:442:379:466:439:237:489:122:469:135:480:145:137:219:128:435:140:232:409:334:236:328:452:377:424:173:130:211:115:317:401:212:376:19:315:215:266:340:125:349:105:258:445:463:244:386:101:3:347:481:213:371:319:400:234:478:278:364:430:412:116:111:497:127:326:124:343:118:467:325:487:417:113:243:449:21:110:402:242:150:360:17:277:406:361:120:30:453:123:182:13:421:208:24:330:126:373:253:446:210:460:262:411:274:171:282:333:416:356:224:160:486:138:479:484:174:320:268:18:391:419:456:108:457:5:203:488:451:465:450:261:341:498:15:0:311 [1:366848] [5:6633635] [1:1073]
tree_sizes=3532 3426 3214 3431 3812 3310 3632 3841 3496 3789 3644 3637 3416 3586 3893 4048 3551 3169 3490 2974 3836 3674 3097 3120 4012 3988 2954 3629 3297 4132 3692 3954 4012 3258 3980 4065 3029 4003 3966 3577 3316 3131 3068 3397 4021 2893 3333 4405 4240 4409 3427 3092 3614 3963 3663 4308 4379 3453 3202 4014 3397 3926 4581 4488 4001 4209 4049 3672 4490 3338 4386 3979 3588 4377 3463 4045 4280 4409 3959 4176 4194 3607 3529 4035 4114 4077 4118 4342 3225 4493 3163 4123 3274 4030 3357 4246 3241 3509

Tree=0
num_leaves=31
num_cat=21
split_feature=2 3 0 0 0 3 2 2 3 2 3 3 2 0 2 2 0 5 2 0 0 5 0 3 0 0 3 0 0 2
split_gain=5.20759e+07 1.63888e+06 1.38525e+06 863571 533102 520640 497991 125845 107466 106394 89143.4 82023.5 63597.2 60624.3 58752.2 50840.7 48435.4 38573.7 36927.4 74596.5 122764 34376 24209.2 23155.3 23005.8 22961 29286.6 22765.7 30549.2 21684.8
threshold=0 26.500000000000004 1 2 3 95.500000000000014 4 5 159.50000000000003 6 12.500000000000002 116.50000000000001 7 8 9 10 11 1.5000000000000002 12 13 14 7.5000000000000009 15 2541.5000000000005 16 17 12444.500000000002 18 19 20
decision_type=5 2 5 5 5 2 5 5 2 5 2 2 5 5 5 5 5 2 5 5 5 2 5 2 5 5 2 5 5 5
left_child=3 7 8 12 9 22 27 -2 16 -4 29 -11 -1 -10 21 -6 -3 -16 19 -8 -21 25 -5 -17 -24 -13 -27 -7 -29 -9
right_child=1 2 4 5 15 6 18 10 13 11 -12 14 -14 -15 17 23 -18 -19 -20 20 -22 -23 24 -25 -26 26 -28 28 -30 -31
leaf_value=0.13101453536779478 -0.1149902874263326 -0.091763172327184006 -0.026699684919802472 -0.19879445449065702 -0.030785382192671101 -0.084585889570552145 -0.18646500477916184 0.065165860158496389 -0.17065462586678362 -0.017014138849387742 0.014154385496946776 -0.073648037851734557 0.19378886665173034 -0.19113223688152717 -0.12376966026394681 0.034764161082606708 -0.16411269732021938 -0.15892047655275177 -0.18656649723510027 -0.13420586722252287 0.15543165056017311 -0.16738491792270704 0.070023741097088588 0.11828237271277418 0.19510553311303705 -0.12090683274040846 -0.054598607531638269 0.073293330838616486 0.16975150933263902 0.16151139057276451
leaf_count=117699 95781 459676 274976 6596 115813 14854 189034 38810 6254938 153634 147156 641700 434459 39887117 2131230 89030 820384 2134848 276856 125162 11118 306524 21000 72870 12875 1466500 199131 73564 24635 52594
internal_value=0 -1.68297 -1.72751 1.8012 -1.04682 0.57818 -0.216493 0.767028 -1.86546 -1.1804 1.0118 -1.23116 1.9188 -1.88226 -1.26672 0.558521 -1.34371 -1.40459 -1.30627 -0.943111 -0.209383 -1.06405 1.82201 0.865797 1.85287 -0.997879 -1.11228 1.20526 1.28486 1.44259
internal_count=56650564 55342712 55008371 1307852 7586256 755694 715223 334341 47422115 7308543 238560 7033567 552158 46142055 6879933 277713 1280060 4266078 602170 325314 136280 2613855 40471 161900 33875 2307331 1665631 113053 98199 91404
cat_boundaries=0 16 21 26 30 46 62 78 89 90 106 122 127 142 149 154 166 184 186 190 194 209
cat_threshold=2097185 0 0 135200 0 2048 2361344 524289 67375136 0 144712705 0 0 8 135720 262144 518451278 16809984 1610612737 134217728 1073741824 537596961 1386632 1075331332 134224389 1213333504 17828640 1140850689 524288 536871040 2097152 0 0 0 0 0 2099200 0 67112960 0 2105345 0 0 0 32 262144 16818176 0 0 537920000 4096 278529 65536 2359296 2097224 0 1048640 2097680 65664 1073741825 2684356864 208 0 0 0 16384 4096 0 0 536870912 16777216 536870912 0 0 0 0 1073741824 256 0 0 0 0 0 0 0 0 0 0 8388608 205914112 0 0 0 83886080 131072 8192 134217728 1048576 8 2147483648 32 16777472 134217728 0 2097154 642 0 0 0 4212736 0 0 134217728 0 0 0 0 2097152 138412160 0 2097170 256 201719816 32768 1073741824 0 1073741824 1 0 0 4128 0 0 0 524289 0 0 8389632 0 0 0 8 16982 131088 0 2097408 0 65536 65536 4194432 0 262144 16384 8192 1073741904 203560018 2298484760 2105360 8650752 8388608 8388608 768 1024 0 0 2048 16522 536870912 272760832 288 512 66560 0 0 2048 0 0 0 0 0 0 0 0 16 256 1140850689 145017344 603979776 4195328 67108864 0 276824097 262144 536871040 262144 0 0 100665344 132608 0 1572864 12544 1536 2147483648 0 17305856 272629760 2 1076625408
shrinkage=0.1


Tree=1
num_leaves=31
num_cat=17
split_feature=2 3 0 0 0 0 3 2 4 2 2 0 2 0 2 3 2 3 0 4 4 3 2 3 3 3 0 3 0 3
split_gain=4.25568e+07 1.34099e+06 1.12697e+06 551032 941678 433417 179908 130652 117479 88616.3 79902.8 66677.9 56875.4 56226.4 48760.4 48000.2 40450.5 35365.1 34780.2 25956.5 24971.5 22272.3 21277.8 20190.2 20089 18802.5 18084.4 17864.3 30774.4 15997.3
threshold=0 42.500000000000007 1 2 3 4 12.500000000000002 5 912.50000000000011 6 7 8 9 10 11 58.500000000000007 12 374.50000000000006 13 86426.000000000015 794318.50000000012 251.50000000000003 14 228590.00000000003 2541.5000000000005 95.500000000000014 15 391.50000000000006 16 4906.5000000000009
decision_type=5 2 5 5 5 5 2 5 2 5 5 5 5 5 5 2 5 2 5 2 2 2 5 2 2 2 5 2 5 2
left_child=3 6 8 -1 7 9 12 -5 -3 29 25 -8 -2 -10 17 -9 -7 -11 -12 -13 -14 -15 -21 -16 -18 -6 -27 -20 -29 -4
right_child=1 2 5 4 10 16 11 15 13 14 18 19 20 21 23 -17 24 -19 27 22 -22 -23 -24 -25 -26 26 -28 28 -30 -31
leaf_value=-0.18293140047466916 -0.093796972122708419 0.16547940384714113 -0.050854910284567005 0.1569734483509411 0.17323541528434042 -0.027565796642028875 -0.12829000490807527 0.04725858080843072 -0.15278800634925704 -0.069593896701246313 0.098651610352535987 0.12207282953740528 0.14725052685700399 -0.15078119612949123 -0.096572422178553843 -0.14466367497016361 0.028337209642065705 -0.12975741623986256 0.18037097909674929 0.057795376712723626 0.041438027719004657 -0.17382411463850389 -0.038071476058578385 -0.00072538435494838365 0.10677185184200227 0.10807431582134375 0.0076080572721878422 0.18068042428002429 0.15707165869739936 0.026596927080594586
leaf_count=183676 37522 5086 179468 5874 5658 115336 168470 21614 5984964 299441 55381 14066 54531 1613880 2630054 402646 88406 4042965 132542 47725 40123 39634253 189479 47948 73027 113107 38895 40691 307768 75968
internal_value=0 -1.52702 -1.57353 1.63637 1.66309 -0.956065 0.407726 -0.850509 -1.69894 -1.0774 1.72653 -0.298416 1.13601 -1.70184 -1.12276 -1.22179 0.497794 -1.24738 1.74876 0.0828943 1.29518 -1.72861 -0.0952695 -0.941042 0.774122 1.10207 0.951444 1.75697 1.68751 -0.21587
internal_count=56650564 55342712 54790796 1307852 1124176 7552613 551916 430134 47238183 7275844 694042 419740 132176 47233097 7020408 424260 276769 4342406 536382 251270 94654 41248133 237204 2678002 161433 157660 152002 481001 348459 255436
cat_boundaries=0 16 21 33 51 55 70 86 101 106 122 125 140 156 161 177 181 185
cat_threshold=2097185 0 0 135200 0 2048 2361344 524289 67375136 0 144712705 0 0 8 135720 262144 518451278 16809984 1610612737 134217728 1073741824 64 203558994 2298484760 2105616 8650816 10486816 8388608 768 1024 0 0 2048 1208238750 536888321 272760834 16384 512 65537 589824 65536 133120 0 0 0 0 0 0 0 0 16 17828640 1140850689 0 536871040 0 0 0 4096 0 0 2097152 0 67108864 0 8193 0 0 0 8 0 0 0 16384 4096 0 0 0 16777216 536870912 0 0 0 0 1073741824 256 0 0 0 0 0 0 0 0 32 0 8388608 0 0 0 4128 333492322 16809985 536870915 536870912 4194304 17080320 0 0 537920000 4096 278528 65536 2359296 2098240 2147483648 1048640 512 128 1073741827 3758622720 208 201588736 0 1073741824 0 0 0 2151680512 576 262144 8388608 1280 4 0 16384 167772160 128 1677721600 262400 0 0 0 4210688 0 0 134217728 0 0 0 0 2097152 138412160 1073741824 2097170 256 2131968 268435488 263168 67108896 8192 0 0 0 2147483648 64 8192 8388608 1049856 4 0 16416 0 0 545259520 1076101120 2 537395200 0 0 4 1057 9699464 1065216 5
shrinkage=0.1


Tree=2
num_leaves=31
num_cat=22
split_feature=0 3 0 1 3 1 0 5 0 3 3 3 0 0 0 0 1 0 0 0 5 3 1 0 1 1 1 0 0 1
split_gain=3.48144e+07 2.45175e+06 738871 244252 217486 144262 122138 109800 75423.1 69740.9 62418.7 61424 213609 60279.1 57642.1 47523.5 45015.7 42843 39651.3 40925.4 37666.5 34730.1 30819.9 29206 27757 25299.6 24736.2 23811.3 31686.1 26600
threshold=0 42.500000000000007 1 2 12.500000000000002 3 4 3.5000000000000004 5 159.50000000000003 391.50000000000006 355.50000000000006 6 7 8 9 10 11 12 13 1.5000000000000002 4184.5000000000009 14 15 16 17 18 19 20 21
decision_type=5 2 5 5 2 5 5 2 5 2 2 2 5 5 5 5 5 5 5 5 2 2 5 5 5 5 5 5 5 5
left_child=11 4 3 6 27 14 10 21 -6 18 -3 -1 13 -13 -4 24 -15 26 -7 -20 -12 25 23 -10 -14 -8 -11 -2 29 -29
right_child=1 2 5 -5 8 9 7 -9 22 17 20 12 15 16 -16 -17 -18 -19 19 -21 -22 -23 -24 -25 -26 -27 -28 28 -30 -31
leaf_value=0.16604079184833836 -0.10385489726503382 -0.016456900037416542 -0.16889235843313669 -0.14313289693327702 -0.10746174238848046 -0.14693874330202986 0.0011266218468292987 -0.11119767123403371 0.01863928277978363 -0.13143645686162367 -0.079068355544061941 -0.083941598663863387 0.12282052968903441 0.10061617434925306 0.15018013017094459 0.15903606012146468 -0.015635246775794764 -0.15881437213469263 -0.090646701518087569 0.096955136452816532 -0.11682012419902306 0.050675061557671264 -0.031978878151213246 0.12388635735083492 -0.012253358983351264 -0.081563066387942251 -0.1562760757077265 0.10423880077064152 0.15408012492695231 -0.059008887167075065
leaf_count=153473 13501 263878 31667 2478520 169024 586152 315512 364307 118672 3665768 1915244 94268 139950 103445 6056 249413 91475 40476363 521890 11492 1595689 173797 116689 28562 30401 144758 2660649 57482 43593 28874
internal_value=0 -1.36975 -1.44675 -0.925314 0.769407 -1.54539 -0.714081 -0.248405 -0.0147195 -1.55078 -0.876765 1.56637 1.44851 0.45295 0.669303 1.53576 0.688273 -1.56352 -1.09672 -0.773174 -0.950121 0.0561823 0.324024 0.624721 1.1505 -0.193601 -1.41493 1.30571 1.33875 0.820443
internal_count=56650564 55788139 55211742 7251705 576397 47960037 4773185 998374 432947 47922314 3774811 862425 708952 289188 37723 419764 194920 46802780 1119534 533382 3510933 634067 263923 147234 170351 460270 6326417 143450 129949 86356
cat_boundaries=0 7 17 24 27 31 38 43 44 49 56 60 67 76 88 92 99 106 107 114 126 134 136
cat_threshold=537461793 1075128488 1589508 134224517 1209139200 0 1024 1051520 880820241 272892930 603996192 4202496 0 0 0 0 134217728 577724417 262208 0 8193 1048576 2048 64 555745281 536870912 1048584 2688 16384 0 536870912 333492306 555782210 1765802011 0 8388608 8388608 8388608 66592 8224 524288 134217856 1073872896 32 0 0 0 2105600 8388608 536870912 1048576 0 4608 1048576 0 1024 558375041 671356992 4096 1 218497024 0 0 0 0 65536 65536 333508690 18878530 2701131793 8192 8388608 8388608 0 256 1024 67502092 134218752 134221832 16 262144 0 0 0 0 0 0 2048 828923969 537198945 0 1 67520780 67239937 0 538976256 0 0 65536 316663114 197384 0 136323073 134348800 0 64 532480 38494208 33554432 2470461572 140624896 152186880 2048 64 1468014672 153129026 2835353627 16 0 0 0 0 0 0 0 2048 3429254 67109889 133120 0 8651264 0 0 512 2253349960 200960
shrinkage=0.1


Tree=3
num_leaves=31
num_cat=22
split_feature=2 0 0 4 0 4 2 4 0 5 0 2 2 0 2 2 5 5 2 5 2 0 0 4 0 2 0 2 2 2
split_gain=2.97701e+07 985967 484196 398046 327645 241724 221574 155636 71986.4 70981.7 70514.8 63215.6 48500.8 36613 35393.5 34842.1 24332.4 24266.1 22597.3 23855.2 21846.7 19965.4 18680.8 18098.4 15877.8 13717.3 13064.5 11849.4 11597.1 9500.21
threshold=0 1 2 11975.000000000002 3 912.50000000000011 4 1967.0000000000002 5 1.5000000000000002 6 7 8 9 10 11 1.5000000000000002 1.5000000000000002 12 23.500000000000004 13 14 15 145746.50000000003 16 17 18 19 20 21
decision_type=5 5 5 2 5 2 5 2 5 2 5 5 5 5 5 5 2 2 5 2 5 5 5 2 5 5 5 5 5 5
left_child=2 5 12 6 7 -2 22 -3 -5 10 -9 16 24 -8 -6 -12 20 28 19 -11 -7 -16 -4 -10 -1 -15 -22 -14 -13 -17
right_child=1 4 3 8 14 11 13 9 23 18 15 17 27 25 21 29 -18 -19 -20 -21 26 -23 -24 -25 -26 -27 -28 -29 -30 -31
leaf_value=0.086084161209146498 0.15906805682781175 0.14156777775094651 0.022787746009707371 0.040841483230003299 -0.024549127169527021 -0.056328622553729571 -0.036608496781994009 -0.011582148157966253 -0.14863555052763594 -0.069974434155306742 -0.1097183823209774 -0.13582085411845687 0.14719602578638827 0.10762910285320759 0.055775608044693295 -0.051737386087322826 -0.1406104017206323 -0.15225310715995802 -0.11851639088008688 -0.15934894087642315 -0.11382681224417486 0.1497497128818614 -0.14349967591154855 -0.068465456298271818 0.14518778845806746 0.15811658522548075 -0.134045785650897 0.15706058718891835 -0.14613085863242944 -0.076706908988887282
leaf_count=125955 6267 9624 14848 52489 114175 153445 29922 373910 324061 619348 1130029 7312451 320787 47298 153396 549212 4064879 19734646 2446074 141475 2721718 7081 130341 133263 12426 21519 2273504 95105 11320755 2210561
internal_value=0 -1.30516 1.4131 0.471384 -0.738598 -1.4279 1.08319 -0.84422 -0.835766 -0.873846 -0.731056 -1.43477 1.50445 1.38373 0.490053 -0.813925 -1.28889 -1.47206 -1.09047 -0.828506 -1.20119 0.730808 -1.09093 -1.20032 1.03993 1.454 -1.2265 1.52482 -1.42014 -0.712971
internal_count=56650564 55342550 1308014 753741 7754885 47587665 243928 7480233 509813 7470609 4263712 47581398 554273 98739 274652 3889802 9213546 38367852 3206897 760823 5148667 160477 145189 457324 138381 68817 4995222 415892 18633206 2759773
cat_boundaries=0 16 21 26 30 45 47 50 65 76 80 95 109 125 140 142 146 149 164 165 176 192 208
cat_threshold=2097185 0 0 135200 0 2048 2361344 524289 67375136 0 144712705 0 0 8 135720 262144 401010766 16809984 1610612737 134217728 1073741824 537596961 1386632 1589508 671095301 1213333504 135269152 1140850689 524290 128 0 0 0 0 0 0 262144 1 262176 0 144704512 0 0 0 544 0 8388640 1048832 0 2 1074003968 0 0 1325419008 64 4194304 134283264 4096 1024 0 0 16777216 262144 8388640 1075838978 0 0 0 0 0 0 262144 0 0 0 8388609 136333312 604110849 272630786 2097408 0 0 0 4212736 0 0 134217728 0 0 0 0 2097152 138412160 1 18 0 0 0 71303168 33686016 0 8388608 0 4 0 0 33554432 0 67108864 0 0 0 16777216 135168 8192 134217728 0 0 2147483648 32 33554688 0 0 1075838976 130 1074003968 0 0 1224736768 0 0 0 0 0 0 0 0 262144 32 2 536871936 268435456 2099200 0 1074003968 16384 536870912 0 524288 2097152 0 0 135168 0 0 0 0 4096 0 0 0 0 0 4104 84148232 0 0 0 0 0 2048 2097152 1 67112960 0 136315904 16785408 0 0 273678336 1536 270336 524288 8192 18874372 671088640 536870912 168296704 65536 540672 537427984 64 0 0 0 16777216 0 0 0 537919488 0 0 0 16777472 0 0 0 512
shrinkage=0.1


Tree=4
num_leaves=31
num_cat=19
split_feature=2 3 0 0 0 0 3 2 2 5 0 0 0 2 2 3 3 3 3 2 0 2 5 2 2 2 3 5 3 2
split_gain=2.51312e+07 923879 800022 331382 567882 236581 109426 87052.6 64957.4 64274.2 69970.1 49329 42624.9 42269.6 40820.8 40525.2 36371.7 32605.4 29172.6 28077.3 21895.9 19397.4 19322.2 19228.6 16773.9 33639.9 16606.8 16348.4 16312 14561.9
threshold=0 42.500000000000007 1 2 3 4 12.500000000000002 5 6 1.5000000000000002 7 8 9 10 11 374.50000000000006 204.50000000000003 159.50000000000003 2541.5000000000005 12 13 14 23.500000000000004 15 16 17 76.500000000000014 1.5000000000000002 4419.0000000000009 18
decision_type=5 2 5 5 5 5 2 5 5 2 5 5 5 5 5 2 2 2 2 5 5 5 2 5 5 5 2 2 2 5
left_child=3 6 11 -1 7 18 14 -5 12 10 15 -3 -6 -8 -2 -7 -9 23 -4 -11 -10 -15 -21 -13 -25 -26 -14 -23 -28 -16
right_child=1 2 5 4 8 9 13 16 20 19 -12 17 26 21 29 -17 -18 -19 -20 22 -22 27 -24 24 25 -27 28 -29 -30 -31
leaf_value=-0.15142365362072666 -0.064979396696120628 -0.122228320902471 -0.0084824496755255517 0.13490162806485811 0.12841875576930173 -0.018442957423993656 -0.11632915604911907 0.022966989881220631 0.082338196460514324 -0.11385251937455201 -0.016847851720952534 -0.14002166834127977 0.1391808979169202 -0.052991767189585273 0.073844387476858661 -0.084529296244704524 -0.12491269315268171 -0.14144788642973546 0.079961026893221432 -0.066206540799840979 0.14488800267844182 0.053018824364873811 -0.14564346231935485 -0.11489086459669168 -0.077564894174410759 0.10685729028518849 0.019716910986957045 -0.041245437169881667 0.08428310603203143 0.13754126197478769
leaf_count=181375 41048 7148068 121422 5833 85975 260332 124775 37437 51598 2399115 532254 393116 5640 106766 62331 3237720 385900 39171651 92400 764478 371978 126123 145346 298436 212490 13552 105197 62247 76945 29016
internal_value=0 -1.22022 -1.26175 1.33013 1.35176 -0.733513 0.405752 -0.67469 1.4042 -0.817938 -0.674141 -1.3753 1.06802 -0.149101 0.984524 -0.781466 -0.99375 -1.40468 0.453926 -1.02081 1.44132 0.0904591 -0.759676 -1.04334 -0.821468 -0.479638 0.687121 0.312593 0.561482 1.13423
internal_count=56650564 55342686 54790380 1307878 1126503 7553067 552306 429170 697333 7339245 4030306 47237313 273757 419911 132395 3498052 423337 40089245 213822 3308939 423576 295136 909824 917594 524478 226042 187782 188370 182142 91347
cat_boundaries=0 16 21 33 51 61 76 91 95 98 103 119 135 151 156 172 188 204 220 236
cat_threshold=2097185 0 0 135200 0 2048 2361344 524289 67375136 0 144712705 0 0 8 135720 262144 518451278 16809984 1610612737 134217728 1073741824 64 203560002 2298615832 2105616 8388672 10552352 8388608 256 131072 0 0 2048 1210335902 536887313 2 16384 262656 1 589824 66048 3072 0 0 0 0 0 0 0 0 16 536871936 277872640 0 4 4194304 0 1024 0 0 134217728 0 0 0 4096 0 0 2097152 0 67108864 0 8193 0 0 0 8 1 0 0 0 0 0 262144 1 32 0 142607361 0 0 0 4128 16779808 67108864 524288 536871040 205914112 0 1073741825 557056 10240 16384 4 1073872896 139264 0 0 524800 4194433 278529 0 2359296 4194880 134217728 1048640 2101248 65668 1073741825 2684880896 336 16818176 0 0 537920000 135168 278528 1114112 2359296 2097216 2147483648 1048640 16777744 128 3 3758622720 144 0 0 0 4196864 576 262144 8388608 536872192 12 536870912 16384 136314880 128 1677721600 262418 512 34816 268435488 272892928 67109024 8192 17334272 0 0 542146560 33558532 0 1581056 536875008 1032 0 256 185074192 272760832 67109120 272 1 17432576 0 0 805356032 33690624 262145 1048576 2097152 520 134217728 537919552 4096 4194308 1073741826 3758096386 512 32768 0 0 524288 4194501 24576 134750208 262400 4194308 0 256 134742016 302120960 67649792 34816 131393 8 0 0 1140850688 512 0 0 12288 16777216 536870912 0 33554448 128 8388608 2883600 2 262144 0 0 100665344 33555969 0 8912896 536883456 16778760 0 0 528640 272826372 1610612736 2359298 131072
shrinkage=0.1


Tree=5
num_leaves=31
num_cat=22
split_feature=0 3 0 1 3 1 5 0 3 3 0 0 0 3 0 1 0 0 1 1 0 5 0 1 0 3 0 0 1 1
split_gain=2.10107e+07 1.6229e+06 583465 220475 130892 95380.5 81086.7 92746.1 61078 57544.4 159586 47515.6 41627.2 41553.7 41483.7 38918.4 37211.9 36300.1 27744.3 26049.4 23617 22247.2 22059.2 18579.9 18150.4 16744.6 15771.3 20230.4 26474 15414.4
threshold=0 42.500000000000007 1 2 12.500000000000002 3 1.5000000000000002 4 251.50000000000003 204.50000000000003 5 6 7 374.50000000000006 8 9 10 11 12 13 14 12.500000000000002 15 16 17 2938.5000000000005 18 19 20 21
decision_type=5 2 5 5 2 5 2 5 2 2 5 5 5 2 5 5 5 5 5 5 5 2 5 5 5 2 5 5 5 5
left_child=9 4 3 6 26 17 7 13 16 -1 11 -11 -6 -3 19 -13 -7 -4 22 -10 -8 -22 -14 -18 -12 -9 -2 28 -28 -5
right_child=1 2 5 29 12 8 20 25 14 10 24 15 18 -15 -16 -17 23 -19 -20 -21 21 -23 -24 -25 -26 -27 27 -29 -30 -31
leaf_value=0.14082738100293735 -0.081627397517673311 0.019566120698885608 -0.14510124314053904 -0.10574797290286311 -0.091438717037895689 -0.12365600263552697 -0.090886324131257634 0.0028342870220563173 -0.10573119359836083 -0.043707386602109474 0.14161019670968117 0.090266045860309244 0.018806484088670038 -0.057552160195693924 -0.1333155601874573 0.012625297669042218 -0.047710801927688021 0.12379089829364494 -0.029365637328741114 -0.13105405521064825 -0.035678606950556691 -0.12513388297572589 0.10928866063415521 -0.10337587502329082 0.12179156553107787 0.061406898369059694 0.10799163874773109 0.14237817813086348 -0.0056208554646364076 -0.13696852897797732
leaf_count=128608 13554 168417 31023 1203964 130727 989177 1667867 232473 4062787 102817 40472 250200 132720 1958025 38921953 117642 537697 7035 139049 3029100 488500 136992 30722 370823 224785 124515 73995 8821 46956 1279148
internal_value=0 -1.11977 -1.18746 -0.715602 0.674489 -1.28348 -0.51171 -0.315485 -1.28826 1.30457 1.19087 0.670346 0.0640792 -0.487795 -1.30478 0.761611 -0.941791 0.58437 0.272736 -1.16117 -0.779389 -0.499945 0.564214 -0.681735 1.32258 0.288759 1.11591 1.14482 0.883405 -1.21221
internal_count=56650564 55786040 55209496 7259901 576544 47949595 4776789 2483430 47911537 864524 735916 470659 433218 2126442 46013840 367842 1897697 38058 302491 7091887 2293359 625492 163442 908520 265257 356988 143326 129772 120951 2483112
cat_boundaries=0 7 17 23 28 35 40 45 52 58 65 74 83 87 94 101 105 111 115 127 132 134 141
cat_threshold=537461793 1075128488 1589508 671095301 1209139200 0 1024 1051520 880820241 272892930 67125408 4202496 0 65536 0 0 134217728 577724417 262144 0 8193 0 2048 555745281 536870912 1048584 0 8192 2688 603979792 0 0 0 0 65536 536937504 8224 524288 671089152 1073872896 32 0 0 536870912 1073741824 333459538 555782210 1761611795 0 8388608 8388608 65536 222691328 0 1073741825 0 0 65537 55534737 671356992 4096 2105345 134217728 0 64 333508690 153096258 2701131793 0 8388608 8388608 8388608 256 1024 0 131072 0 2097408 8388608 65536 0 0 131072 560554129 537198945 0 1 38494208 0 2202009732 136348672 152178688 2048 64 1049088 536887296 0 67108864 0 0 65536 67551500 67256337 0 2105344 1212770448 297073 2449473792 6382656 134348816 2048 1 262280 1048832 5 1468014672 153129026 2835353627 16 512 0 0 512 0 0 0 2048 3461902 67109889 1073874944 0 8650752 1313433816 536906033 17860416 4672 2186280960 140541952 17969152 0 64
shrinkage=0.1


Tree=6
num_leaves=31
num_cat=17
split_feature=2 3 2 1 5 2 3 1 2 3 1 5 5 2 3 2 1 2 3 3 3 1 2 2 1 2 5 1 5 3
split_gain=1.83938e+07 673188 453312 174111 154929 102419 115117 121304 87149.1 77275.7 59783.6 52441.7 38166.5 34458 33473 30826.2 30443.4 30046.7 29544.9 29031.2 26802.5 21587.2 21561.4 21157 20601.1 19508 18739.3 17784.7 16971 16772.4
threshold=0 42.500000000000007 1 2 10.500000000000002 3 181.50000000000003 4 5 12.500000000000002 6 1.5000000000000002 1.5000000000000002 7 159.50000000000003 8 9 10 91033.500000000015 355.50000000000006 2748.5000000000005 11 12 13 14 15 20.500000000000004 16 1.5000000000000002 476.50000000000006
decision_type=5 2 5 5 2 5 2 5 5 2 5 2 2 5 2 5 5 5 2 2 2 5 5 5 5 5 2 5 2 2
left_child=4 9 3 11 5 6 -1 15 10 13 12 17 19 -2 22 -8 23 20 -6 -4 -3 -5 -10 -11 -15 26 -13 28 -16 -19
right_child=1 2 8 21 18 -7 7 -9 14 16 -12 25 -14 24 27 -17 -18 29 -20 -21 -22 -23 -24 -25 -26 -27 -28 -29 -30 -31
leaf_value=0.13058585789920976 -0.06741910627399593 -0.022682949061568272 -0.033585352464521004 -0.082744617772742751 -0.096011091506426643 0.13007861045026062 0.090515351034797756 -0.053568061206884954 -0.12071119192089863 -0.090993533256738812 -0.12576293430189664 -0.023469337534987273 -0.11174317342383362 0.14016446467478613 -0.1162443280414161 0.0025921298303871569 -0.074168334599244962 0.015636946312579756 0.041834539382121054 -0.088486280556803951 0.036270637675202735 -0.11977730767710429 -0.057391276401487168 0.032880223588979317 0.063912395365032418 -0.081423054832993572 -0.12740782673296872 -0.13325015195595652 -0.12832458521515444 -0.05339956575729729
leaf_count=59704 41865 473132 348606 993488 139073 457385 286571 226209 453259 60103 4407472 377878 3598334 9049 9590548 96366 180281 94948 42175 4188288 248913 1533730 402374 178987 81213 1001589 88997 13251342 12998621 740064
internal_value=0 -1.08693 -1.12498 -0.635202 1.20551 1.22599 0.940271 0.623679 -1.20084 0.325069 -1.05304 -0.372324 -0.952111 0.829805 -1.25667 0.819968 -0.140579 -0.178044 -0.351692 -0.83309 0.0317869 -1.03997 -0.868838 0.155541 0.974963 -0.644406 -0.366381 -1.26793 -1.2309 -0.425447
internal_count=56650564 55343081 54791583 5552739 1307483 1126235 668850 609146 49238844 551498 12542700 3025521 8135228 132127 36696144 382937 419371 1557057 181248 4536894 722045 2527218 855633 239090 90262 1468464 466875 35840511 22589169 835012
cat_boundaries=0 16 32 38 53 60 76 83 99 110 114 130 137 153 169 173 189 213
cat_threshold=2097185 0 0 135200 0 2048 2361344 524289 67375136 0 144712705 0 0 8 135720 262144 262144 0 0 3238019072 131072 0 8388608 537920512 0 2684354560 16416 52428800 134217728 536870944 1074004228 384 6905856 64 4198672 8193 0 2048 0 0 0 4128 0 0 262144 524289 32 0 142607361 0 0 0 4640 595551489 134484032 2148601864 2105345 151134208 0 64 0 0 0 100665856 4160 8192 134283264 256 1028 0 0 256 4456448 8388608 2097154 578 38756352 0 2168455168 134258688 135401472 2048 64 17080320 0 0 537920000 4096 278528 1114112 2359296 2097224 2147483648 1048640 512 128 1073741827 3758622720 144 0 0 0 32 0 0 262144 1 32 0 142607360 290005201 536871201 0 1 0 0 0 16384 131072 0 0 537919488 0 536870912 0 52428800 134217728 32 1073741824 256 50726145 0 2181038080 32768 1183744 0 64 17301504 0 0 940081152 33555589 262145 1056768 2097152 576 134217728 537919552 4096 132 1073741826 2684356608 131072 16916480 0 0 557568 4195457 16385 0 2359296 576 134217728 64 2625536 65668 1073741825 2684356608 336 209 537004337 0 1 0 0 0 16793600 131072 0 0 0 0 2147483648 32 35651584 0 0 1073741828 128 595419137 4160 2185232656 136324097 1191936 2048 64 0 0 0 0 0 0 0 0 0 0 0 0 0 0 0 0 4096
shrinkage=0.1


Tree=7
num_leaves=31
num_cat=26
split_feature=2 0 0 0 1 2 0 2 2 2 5 1 2 5 1 1 5 5 1 1 2 0 1 0 0 2 2 0 1 0
split_gain=1.57673e+07 769292 275135 382597 209657 144672 79097.6 64896.3 60661.3 57382.9 35996.4 35736 29445.2 29120.5 28894.3 24359.1 26384.6 22734.2 29537.1 22270.8 22269.3 17946.9 16905.2 16572.1 16134.9 14860.6 13923.7 11966.5 13964.7 11016.1
threshold=0 1 2 3 4 5 6 7 8 9 1.5000000000000002 10 11 7.5000000000000009 12 13 1.5000000000000002 1.5000000000000002 14 15 16 17 18 19 20 21 22 23 24 25
decision_type=5 5 5 5 5 5 5 5 5 5 2 5 5 2 5 5 2 2 5 5 5 5 5 5 5 5 5 5 5 5
left_child=2 9 -1 7 5 10 -7 -4 11 15 22 -5 -6 26 20 16 23 18 25 -14 -11 -10 -3 -2 -24 -16 -8 28 -9 -13
right_child=1 4 3 8 12 6 13 27 21 14 -12 29 19 -15 17 -17 -18 -19 -20 -21 -22 -23 24 -25 -26 -27 -28 -29 -30 -31
leaf_value=-0.13715667279887767 -0.061338997450999334 -0.12059291648014694 0.080165137158535654 0.099732452181485187 -0.014918175773853459 0.081875071510167888 -0.011830282309641347 -0.014661966669420323 0.063044461207866276 -0.12791169077193479 -0.076105849506190301 0.10089673202774935 -0.082624666638258279 -0.097433693226293569 -0.094776020276557391 -0.1152436175653398 -0.10696691422011384 -0.12495340299729266 -0.12328674391901116 -0.11727365638884789 0.028963491263073848 0.12704269661874587 -0.09465966516313766 -0.09393458554738672 -0.028181455752535774 -0.11243034748634005 0.031675862533974801 -0.12654896949529554 -0.11837050340361724 0.0024511124599803152
leaf_count=213353 1292557 101932 24996 167120 108513 99123 817179 83473 40774 76344 1576027 6579 1684413 143784 3544005 2987771 2505662 20082145 9420553 1394011 53131 375031 171615 1339781 1480459 6287539 176537 214111 90001 92045
internal_value=0 -1.02946 1.15055 1.1743 -0.513541 -0.294709 0.106439 -0.518944 1.22394 -1.15435 -0.532061 0.875074 -0.925268 -0.090152 -1.19124 -0.992483 -0.907073 -1.19549 -1.14149 -0.972265 -0.321485 1.26328 -0.367398 -0.767589 -0.331075 -1.05847 -0.0157528 -0.897939 -0.574365 0.222591
internal_count=56650564 55343081 1307483 1094130 7753593 4566656 1236623 412581 681549 47589488 3330033 265744 3186937 1137500 39463717 8125771 5138000 39334242 19252097 3078424 129475 415805 1754006 2632338 1652074 9831544 993716 387585 173474 98624
cat_boundaries=0 16 21 33 51 75 91 98 113 128 144 151 167 172 179 185 192 207 211 235 236 237 252 268 275 277 282
cat_threshold=2097185 0 0 135200 0 2048 2361344 524289 67375136 0 144712705 0 0 8 135720 262144 401010766 16809984 1610612737 134217728 1073741824 1073741904 203558994 2298482712 2105616 8651264 8454176 8388608 256 133120 0 0 2048 142885518 536888321 273026050 16384 8256 2098177 589824 66048 1024 0 0 0 0 0 0 0 0 16 594108417 262241 4096 8193 8192 2048 0 0 0 0 0 0 0 0 0 0 0 0 0 0 0 0 0 4096 0 0 0 2214594560 33555009 8192 142606336 1280 12 2147483648 16416 2097152 128 603979776 2359300 128 671089664 277872640 0 4 0 0 1024 2097152 0 0 4096 0 0 2097152 0 67108864 0 8396801 0 0 0 8 0 0 0 0 0 0 262144 0 0 0 142607361 0 0 0 4128 1074003968 0 0 1262504448 64 4194304 134283264 4096 1024 0 0 16777216 262144 8388640 1073741826 64 560554129 671352912 1183752 8193 134217728 0 64 8 0 0 0 1 0 0 0 0 536870912 0 134217984 0 1073758241 1073744128 256 0 536871168 0 0 8192 38494280 256 2202009600 134250497 135409664 2048 64 543776976 264192 2147483920 8193 1052672 2048 1475904 0 2185232656 134217728 1183744 0 64 16785416 0 0 537919488 135681 262144 1572864 2367744 18874380 0 1048640 529152 4259840 2 537397248 2131968 268435488 0 67109024 0 33 0 0 0 0 0 0 0 0 0 0 0 0 0 0 0 0 0 0 0 0 0 4096 17178696 134217728 8192 0 0 336592896 512 262144 524288 8192 18874372 536870912 0 134217728 65664 524289 2686978320 0 0 0 0 131072 0 0 537919488 0 0 0 33554688 138412032 1073741824 1073741826 514 262784 16384 268697600 16384 0 0 65536 2421826306 1478953480 557056 2048 0 0 1073872896
shrinkage=0.1


Tree=8
num_leaves=31
num_cat=22
split_feature=2 0 0 2 0 4 2 4 2 2 2 0 5 0 5 0 2 5 2 0 2 2 0 0 5 0 2 5 0 5
split_gain=1.35691e+07 731811 209596 195539 203941 167500 158588 88663.3 66712.7 61164.9 47816.1 42386.5 30539.3 32628.8 24235.2 23899.5 23861 19703.5 13332.1 12884.2 12439.8 12432 11466.3 9647.01 8612.05 8404.08 7786.31 7303.03 7118.19 7115.83
threshold=0 1 2 3 4 912.50000000000011 5 3621.0000000000005 6 7 8 9 3.5000000000000004 10 1.5000000000000002 11 12 1.5000000000000002 13 14 15 16 17 18 1.5000000000000002 19 20 1.5000000000000002 21 1.5000000000000002
decision_type=5 5 5 5 5 2 5 2 5 5 5 5 2 5 2 5 5 2 5 5 5 5 5 5 2 5 5 2 5 2
left_child=2 5 20 15 10 -2 12 28 -6 17 -5 23 13 27 21 -4 -15 18 -7 -20 -1 -11 -12 -9 -18 -10 -14 -3 -8 -27
right_child=1 6 3 4 8 9 7 11 25 14 22 -13 26 16 -16 -17 24 -19 19 -21 -22 -23 -24 -25 -26 29 -28 -29 -30 -31
leaf_value=0.11546049479657111 0.14971398733222216 0.010531027714238562 0.046393302706667645 0.1140535268631635 0.11911454334789638 -0.0066479855377492214 0.0044844334515149187 0.036575914410799791 0.014153527940920108 -0.10180689106144168 -0.048778884709196786 -0.041574469092847573 0.0075268882937705424 -0.098239535538168457 -0.12083549275214833 -0.1121678994076995 -0.051011822761116814 -0.10653288393231548 -0.078289204871518858 -0.10280327643792786 0.12762699884689296 -0.11383083046908278 -0.12309649926970473 -0.0026520939935879462 -0.071214842328955683 0.074965100911229751 -0.093597208694280287 -0.032107365941104533 0.13395934080443223 0.030290658270672729
leaf_count=275153 6257 164434 13373 5163 86645 65965 8674 152068 63669 6989241 144919 852825 22183 686985 20161318 291844 2784112 3636909 2813303 1639311 81106 12276150 187120 307107 1182059 101788 1286375 297884 9519 57105
internal_value=0 -0.976816 1.10519 0.684173 0.818809 -1.104 -0.470368 -0.0160638 0.994827 -1.11109 -0.536469 -0.140431 -0.623438 -0.560983 -1.15074 -0.880004 -0.61683 -0.940703 -0.848235 -0.865612 1.22042 -1.09348 -0.826559 0.15429 -0.563968 0.545606 -0.910084 -0.143817 1.22435 0.636026
internal_count=56650564 55342679 1307885 951626 646409 47588454 7754225 1330193 309207 47582197 337202 1312000 6424032 5115474 39426709 305217 4653156 8155488 4518579 4452614 356259 19265391 332039 459175 3966171 222562 1308558 462318 18193 158893
cat_boundaries=0 16 21 26 41 45 61 77 93 108 113 116 120 135 148 149 160 175 179 180 185 201 211
cat_threshold=2097185 0 0 135200 0 2048 2361344 524289 67375136 0 144712705 0 0 8 135720 262144 401010766 16809984 1610612737 134217728 1073741824 17503265 1386632 1074807044 671095301 1213333504 0 0 0 131072 0 0 0 1 262176 0 136315904 0 0 0 512 134236886 604110849 4194306 2113792 0 0 0 2218788864 33686080 8192 142606336 1280 12 2147483648 16416 0 128 603979776 2359302 130 1 0 0 32 0 2048 2099200 524288 67108864 0 8192 0 0 0 0 262144 1074003968 0 0 1258293760 64 4194304 134283264 4096 1024 0 0 16777728 262144 8388640 1074266114 64 0 0 0 4096 0 0 2097152 0 67108864 0 8192 0 0 0 8 1049856 8388608 0 0 4194304 537919744 0 2 538970112 0 524288 16384 0 0 0 4194304 33686016 0 0 0 0 0 0 0 128 67108864 4 262144 0 0 134217728 0 0 0 0 0 0 0 0 262144 84312072 0 0 0 0 0 2048 2359296 1 67112960 0 144712704 16785408 0 0 72368128 512 262144 524288 8192 18874372 536870912 536870912 134217984 131072 540672 538968080 128 603979777 4194304 16384 1024 0 8388640 525312 67108992 8192 0 0 0 67108864 0 8192 134217728 0 0 2147483648 32 0 0 0 2097152 130 536872480 1140850688 524290 128 0 0 0 0 0 134217728
shrinkage=0.1


Tree=9
num_leaves=31
num_cat=25
split_feature=2 0 1 0 2 0 2 2 0 2 2 5 1 1 0 1 1 5 1 5 0 2 5 2 1 5 2 2 2 2
split_gain=1.16988e+07 700601 199134 186826 168457 180695 111075 59004.1 52746.9 52415.2 37875.1 36793.6 30399.9 26838.5 26344 25690.3 24850.9 23918.6 31986.1 23444.2 20323.7 19996 19714 19044.6 17704.7 17105.2 16465 14888.7 13255.8 12948.1
threshold=0 1 2 3 4 5 6 7 8 9 10 2.5000000000000004 11 12 13 14 15 1.5000000000000002 16 1.5000000000000002 17 18 7.5000000000000009 19 20 1.5000000000000002 21 22 23 24
decision_type=5 5 5 5 5 5 5 5 5 5 5 2 5 5 5 5 5 2 5 2 5 5 2 5 5 2 5 5 5 5
left_child=3 7 6 29 20 10 11 15 22 16 -6 24 21 25 -15 19 -7 18 27 28 -5 -9 -8 -10 -3 -4 -26 -14 -2 -1
right_child=1 2 13 4 5 9 8 12 23 -11 -12 -13 17 14 -16 -17 -18 -19 -20 -21 -22 -23 -24 -25 26 -27 -28 -29 -30 -31
leaf_value=0.11080940210611674 -0.043713274508430884 -0.11104207405445182 -0.047725323846240619 0.042503788228176909 0.10253895985838564 0.072574167587450208 -0.0033839247051129038 -0.11771927127169848 0.018612259718890006 0.11439150126311529 -0.074876330588463283 -0.076983508305830881 -0.081219635475224386 0.079857309656355277 -0.10213120306013933 -0.11303112333087373 -0.011643842953510368 -0.11635369199669657 -0.1146999339515727 -0.097434240495520408 -0.10590007767585628 0.037071116077240424 -0.089172261423406007 0.078583276104256 -0.054482233586351791 -0.092217510823636439 -0.018378251311824828 -0.1011823007157545 -0.077092636270499712 0.12372185691588192
leaf_count=263649 616974 127473 866574 13194 6506 114738 801366 75908 176772 86453 334397 1037695 2660913 7692 2041927 1836484 74323 20017011 9396635 2879031 290615 53315 134585 93462 657192 581335 1524850 7146331 2641662 91502
internal_value=0 -0.926505 -0.437888 1.06902 0.656633 0.788033 -0.215492 -1.05912 0.138587 0.966093 -0.491171 -0.429315 -1.09917 -0.825828 -0.989149 -0.885824 0.542691 -1.10398 -1.04554 -0.819966 -0.827985 -0.185407 -0.108554 0.524954 -0.311192 -0.630345 -0.278562 -0.954569 -0.69923 1.18134
internal_count=56650564 55375187 8050923 1275377 920226 616417 4553395 47324264 1206185 275514 340903 3347210 39350113 3497528 2049619 7974151 189061 39220890 19203879 6137667 303809 129223 935951 270234 2309515 1447909 2182042 9807244 3258636 355151
cat_boundaries=0 16 21 45 50 65 69 85 101 111 126 137 142 148 158 165 172 178 182 197 213 237 251 266 281 292
cat_threshold=2097185 0 0 135200 0 2048 2361344 524289 67375136 0 144712705 0 0 8 135688 262144 384233550 16809984 1610612737 134217728 1073741824 560553985 262241 0 8193 8192 0 0 0 0 0 0 0 0 0 0 0 0 0 0 0 0 0 0 4096 17503265 9775240 1074807044 134224389 1213333504 0 0 0 131072 0 0 0 1 262176 0 134218752 0 0 0 512 134236374 604110849 272630786 2113792 0 0 0 2214595072 33555009 270336 142606336 1280 12 2147483648 16416 0 128 603979776 262150 130 1074003968 0 0 1262503936 64 4194304 134283264 4096 1024 0 0 16777728 262144 8388640 1074266114 64 2848 1073750033 524288 536871040 0 0 0 0 0 134217728 2097152 0 0 0 0 0 262144 0 4096 0 8388609 0 0 0 4104 0 0 0 4096 0 0 2097152 0 67108864 0 8396800 0 536871168 0 0 8192 33948928 0 4352 0 0 2048 536870912 1056784 0 536870912 0 0 0 0 0 134217728 106915144 256 2202009604 134316033 135409664 2048 64 594239633 536873041 0 136339457 150994960 0 64 543776976 2048 272 8193 1052672 2048 536872960 0 524288 16384 16785416 0 0 537920000 135681 262144 1572864 2367744 18874380 0 1048640 528640 4259840 1073741826 536872960 0 0 0 16793600 0 0 0 0 0 0 0 0 4194304 0 1075839024 256 0 33 0 0 0 0 0 0 0 0 0 0 0 0 0 0 0 0 0 0 0 0 0 4096 0 0 0 67110912 33554945 0 8388608 0 4 0 0 0 128 67108864 8192 0 0 68157440 0 0 524288 8192 18874372 536870912 0 256 128 524289 538970384 1074003968 0 0 1207961600 0 0 0 0 0 0 0 0 262144 32 1073741826 0 0 0 0 0 2048 2359296 1 67112960 0 142607360
shrinkage=0.1


Tree=10
num_leaves=31
num_cat=19
split_feature=2 3 0 0 3 2 2 3 4 0 4 2 0 3 2 2 3 0 2 3 2 3 2 0 3 0 0 3 2 2
split_gain=1.00816e+07 644902 588864 185176 189529 133088 88211.4 84036.5 64083.2 53700.2 50938.7 47731.2 41130.6 38615.3 27080.5 23317.4 21665 18603.5 18163.1 16796.5 16118.1 23716.9 14088.7 13751.2 19680.7 12876 12664.1 11674.1 10816.7 10188.5
threshold=0 76.500000000000014 1 2 181.50000000000003 3 4 12.500000000000002 1967.0000000000002 5 6779.5000000000009 6 7 2583.5000000000005 8 9 228590.00000000003 10 11 374.50000000000006 12 2807.5000000000005 13 14 591.50000000000011 15 16 321511.50000000006 17 18
decision_type=5 2 5 5 2 5 5 2 2 5 2 5 5 2 5 5 2 5 5 2 5 2 5 5 2 5 5 2 5 5
left_child=3 7 8 23 25 20 13 15 -3 -10 11 -7 -9 -4 -8 -2 -16 -18 -14 28 -6 -22 -20 24 -1 -5 -15 -19 -11 -17
right_child=1 2 6 4 5 10 14 12 9 19 -12 -13 18 26 16 29 17 27 22 -21 21 -23 -24 -25 -26 -27 -28 -29 -30 -31
leaf_value=0.11679107882985824 -0.03917639159167835 0.1305596033025419 -0.036641571595048737 -0.13747468370630264 0.083371068415026547 0.1020754886300394 -0.073200457757462381 -0.067260258329524203 -0.087515392019360053 -0.067958505420455687 -0.10360231431627479 -0.077838144447149649 -0.043959216585469085 -0.015845604346663374 -0.048032777900689119 0.068554847787136039 -0.041926326096821939 0.20940316011458565 0.012879773850655696 -0.11124337586698707 -0.011591708738503289 0.063506628785615291 0.073323199205017564 0.12064224093788856 0.091645584136944735 0.11542242816738474 0.050503594127581854 0.024087072026718753 -0.10232462056291519 0.1238659138737096
leaf_count=78633 41791 12665 331186 10537 62984 15318 2323886 333326 6781356 750420 468306 119610 128152 102363 4475660 60410 54310 6634 279388 37820552 107094 103524 103148 89150 188132 64360 175990 19247 1512405 30027
internal_value=0 -0.881553 -0.933479 1.02734 0.613934 0.186962 -0.456183 0.330194 -1.05901 -1.06249 -0.577908 0.149819 -0.0104204 0.0471604 -0.541812 0.916006 -0.460389 0.426932 0.222798 -1.0994 0.560804 0.371814 0.362005 1.14554 1.06875 1.14069 0.360945 1.24339 -0.900889 1.03111
internal_count=56650564 55342916 54366674 1307648 951733 876836 7489276 976242 46877398 46864733 603234 134928 844014 609539 6879737 132228 4555851 80191 510688 40083377 273602 210618 382536 355915 266765 74897 278353 25881 2262825 90437
cat_boundaries=0 16 21 26 42 58 61 72 79 94 110 111 127 143 159 164 176 180 196 212
cat_threshold=2097185 0 0 135200 0 2048 2361344 524289 67375136 0 144712705 0 0 8 135720 262144 518451278 16809984 1610612737 134217728 1073741824 17503265 1386632 1074807044 671095301 1213333504 2097152 0 0 0 0 2048 2361344 0 67112960 0 8396800 0 0 0 32 262144 8 0 0 16384 4097 0 0 536870912 0 536870912 0 167772416 0 1073758241 1073744128 256 205783040 0 1 0 0 0 32 0 0 0 524288 0 0 1 333492322 286294016 536870915 536870912 1073741824 0 1024 0 0 0 4196864 576 0 8388608 1024 4 0 0 0 128 603979776 20 17080320 0 0 537920000 4096 278528 65536 2359296 2097224 2147483648 1048640 512 128 1073741827 3758622720 208 768 786432 0 0 540672 33554560 1 1581056 536875008 64 0 0 34083344 33554560 1140850947 537395460 193 0 0 0 0 0 2048 2099200 0 67108864 0 8192 0 0 0 0 262144 0 0 0 100665344 135684 4202496 142671872 9216 16777220 2147483648 536887296 153092096 131072 524288 32784 514 720896 1116160 1073758208 671090688 1074790400 1073741904 203558994 2566920216 2105616 8651264 8388608 0 256 3072 0 0 2048 2848 16 0 536871040 8192 0 0 222298112 64 4202496 589824 12288 18874372 536870912 256 33554944 458752 67108897 2883584 83 0 0 0 100665344 33687041 4194304 1572864 536883456 16778756 0 0 17305856 272826368 536870912 2392064 131072
shrinkage=0.1


Tree=11
num_leaves=31
num_cat=19
split_feature=2 3 2 1 2 3 4 2 1 3 1 1 4 4 2 1 2 2 3 2 2 4 4 2 3 1 2 3 2 2
split_gain=8.72408e+06 563549 357412 121452 106413 109746 100142 90316.2 78332.2 70727.4 63887.8 40822.5 39286.3 35279.8 33658.5 25126.2 23410.2 22578.9 22187.1 33387.2 20516.6 22232.5 20101.2 19731.1 18752.4 18003.6 16272.6 15216.7 15156.1 14909.7
threshold=0 76.500000000000014 1 2 3 159.50000000000003 912.50000000000011 4 5 12.500000000000002 6 7 110619.00000000001 123505.00000000001 8 9 10 11 355.50000000000006 12 13 3621.0000000000005 145746.50000000003 14 427.50000000000006 15 16 444.50000000000006 17 18
decision_type=5 2 5 5 5 2 2 5 5 2 5 5 2 2 5 5 5 5 2 5 5 2 2 5 2 5 5 2 5 5
left_child=4 9 3 12 18 -6 -4 10 20 23 13 17 16 29 -14 -5 -3 -11 -1 -20 22 -22 -7 -2 -15 27 -13 -9 -16 -8
right_child=1 2 6 15 5 8 7 25 -10 11 -12 26 14 24 28 -17 -18 -19 19 -21 21 -23 -24 -25 -26 -27 -28 -29 -30 -31
leaf_value=0.11699437111598775 -0.036246389178567734 0.043223005483908512 0.14188072215290209 -0.05930620459009215 0.11107215958024293 0.065770699502104846 -0.0042806411376112774 -0.07959114556074115 -0.057108783188269577 -0.062962119595438334 -0.1055844192953658 0.073369969348683908 -0.082960805108607066 -0.040751376981735234 0.0017296622249273381 -0.098731149328636081 -0.035287480980774596 0.040366534184915308 -0.045745449263892818 0.10072233192033307 0.090845648738402784 -0.096650452597857747 -0.047542095585179717 0.095680224558501156 -0.080020938475296691 -0.11431175614148846 -0.072295710311634606 -0.10372067393000195 -0.032955570874017924 -0.063788152963220865
leaf_count=116716 41716 162554 8631 1356995 62768 316701 302924 1692640 275940 121900 5052585 18113 617247 613395 463687 1611920 200561 369506 60424 290130 5503 86022 61098 90624 7767617 11450173 334736 21012902 1720021 364815
internal_value=0 -0.838402 -0.889191 -0.454934 0.997972 0.67826 -0.97754 -0.98294 0.362532 0.301869 -0.828537 -0.00983529 -0.22304 -0.71795 -0.324134 -0.787486 0.19577 0.262025 1.09244 0.987193 0.543118 -0.290605 0.606337 0.848703 -0.76619 -1.05869 -0.57795 -1.01748 -0.235041 -0.290274
internal_count=56650564 55375262 54398667 6132985 1275302 808032 48265682 48257051 745264 976595 14101336 844255 3164070 9048751 2800955 2968915 363115 491406 467270 350554 469324 91525 377799 132340 8381012 34155715 352849 22705542 2183708 667739
cat_boundaries=0 16 32 37 53 69 76 82 86 102 109 124 140 155 166 182 189 205 221 236
cat_threshold=2097185 0 0 135200 0 2048 2361344 524289 67375136 0 144712705 0 0 8 135688 262144 0 0 0 2164277248 131072 0 8388608 537920512 1024 2684354560 16416 52428800 134217728 536870944 1074004262 386 6823936 0 0 8193 134217728 2097184 0 0 131072 0 2048 2099200 0 67375104 0 8192 0 0 8 131080 262144 0 0 0 1175456256 4160 8192 134283264 4352 12 0 0 256 262144 8388608 2097152 512 594535681 134615360 1118216 134225921 151126016 0 64 38756352 0 4194304 8192 1048576 2048 292118593 536871201 0 1 0 0 0 0 0 0 0 0 1024 536870912 0 33554432 0 0 0 2 34030849 576 2185236752 32768 1183744 2048 64 0 0 0 16384 0 0 0 536870912 0 536870912 0 33554432 134217728 0 32 688128 0 0 538476544 37748736 278529 0 2359296 4194880 134217728 320 528400 132 1073741825 2147485696 336 0 0 0 131072 0 0 0 0 0 0 0 0 0 8 131080 0 0 0 32 0 0 262144 1 32 0 142607360 16818176 0 0 537920000 4096 278528 65536 2359296 2097224 2147483648 1048640 512 128 1073741827 3758622752 208 38756352 4096 2185232656 134225921 1191936 2048 64 1074528264 0 0 2302672896 0 4194304 0 1049600 2098180 0 32 524288 134479872 32 32 256 0 0 0 0 131072 0 0 0 0 0 0 0 0 0 1073741824 128 0 0 0 67108864 4096 8192 0 0 8 0 0 0 0 0 2097152
shrinkage=0.1


Tree=12
num_leaves=31
num_cat=13
split_feature=2 3 2 2 3 4 2 3 5 2 4 3 2 2 3 2 3 2 4 4 2 2 5 2 3 4 2 4 4 3
split_gain=7.55073e+06 494701 349637 104251 101503 88008.3 66858.2 60662.1 49682.3 42690.4 37381.2 34408.6 30822.7 28301.1 22849.2 31821.3 22056.8 20982 20171.3 19504.3 20568.4 19748.1 19030.2 17672.5 16622.8 16350.2 15682.2 18999.3 13699.9 12409.5
threshold=0 76.500000000000014 1 2 95.500000000000014 3621.0000000000005 3 12.500000000000002 2.5000000000000004 4 282609.50000000006 2748.5000000000005 5 6 427.50000000000006 7 541.50000000000011 8 145746.50000000003 110619.00000000001 9 10 2.5000000000000004 11 20539.500000000004 762363.50000000012 12 9971.0000000000018 64195.500000000007 355.50000000000006
decision_type=5 2 5 5 2 2 5 2 2 5 2 2 5 5 2 5 2 5 2 2 5 5 2 5 2 2 5 2 2 2
left_child=3 7 9 14 -5 -4 10 25 18 11 12 -3 -7 -9 -1 -16 -11 -12 -6 20 -13 -21 23 -15 -10 -2 27 -17 -26 -8
right_child=1 2 5 4 8 6 29 13 24 16 17 19 -14 22 15 26 -18 -19 -20 21 -22 -23 -24 -25 28 -27 -28 -29 -30 -31
leaf_value=0.11415459466326881 0.097491941050028341 -0.050854540880492509 0.10034294751424111 0.1093065668077981 0.056978282137385816 -0.033124438989859908 -0.082477195596206102 -0.079075691803471751 -0.06877198950557778 -0.023828788113119469 -0.078758268090212691 -0.081561419543998592 -0.080637573730766909 -0.024716728134927618 -0.053355561430864978 0.023021640455950839 -0.064836323696265991 -0.10329745447024295 -0.05572459833996514 -0.084160752897551636 0.040414399933287062 -0.011652493785014982 -0.06026889050350677 0.043065721194485471 -0.076418933547039311 0.018302892748948422 0.083617124168913898 0.11231898768843643 0.043617227737456202 -0.10407179756463564
leaf_count=124076 65383 1503869 22473 51017 378266 970970 1781859 214972 202746 604199 4698288 75860 1717659 201107 59259 33027 5461431 4277171 68188 265683 150084 705960 121685 307497 62927 66760 195282 55519 44693 32162654
internal_value=0 -0.799042 -0.84895 0.963658 0.640959 -0.957736 -0.964347 0.275706 0.3487 -0.484287 -0.809043 -0.300938 -0.587698 -0.0116933 1.06158 0.948697 -0.599267 -0.894913 0.518696 -0.0886045 0.243864 -0.240634 0.12652 0.243435 -0.277702 0.791428 0.969145 1.0832 0.129381 -1.02799
internal_count=56650564 55375564 54398160 1275000 807837 45631074 45608601 977404 756820 8767086 11664088 2701456 2688629 845261 467163 343087 6065630 8975459 446454 1197587 225944 971643 630289 508604 310366 132143 283828 88546 107620 33944513
cat_boundaries=0 16 32 48 64 80 96 112 127 141 156 168 184 193
cat_threshold=2097185 0 0 135200 0 2048 2361344 524289 67375136 0 144712705 0 0 8 135688 262144 0 0 0 3238019072 131136 0 8388608 537920768 1028 2684354560 16416 52428800 134217728 536870944 1074004258 386 2097184 0 0 131072 0 2048 2099200 0 67375104 0 8192 0 0 8 131080 262144 0 0 0 101714432 4096 8192 134283264 4096 8 0 0 768 4456448 8388608 2621440 576 0 0 0 16793600 131072 0 0 537919488 0 2684354560 32 35651584 134217728 0 1073742112 384 0 0 0 2048 4096 8192 134217728 0 8 0 0 0 0 0 0 512 172032 0 0 538476544 37752960 278529 0 2097152 4194880 134217728 64 4112 132 1073741825 2147485956 80 0 0 0 131072 0 0 0 0 0 0 0 0 0 8 131080 0 0 0 33556480 0 0 0 4096 0 0 0 0 0 8388608 0 0 0 0 131072 0 0 536870912 0 0 0 0 0 0 1073741824 0 0 0 0 0 0 0 0 0 536870912 0 33554432 17301504 0 0 268452352 5 0 8192 266240 8 0 537919744 168296448 302186496 67649794 537395232 131 2097152 0 0 0 0 0 2048 0 262144
shrinkage=0.1


Tree=13
num_leaves=31
num_cat=22
split_feature=2 0 0 4 2 2 0 2 0 5 0 5 2 2 0 5 2 2 0 0 5 0 2 0 2 5 2 5 5 2
split_gain=6.52939e+06 583441 182069 153784 120919 74857.2 69859.5 58990.2 73937.5 41740 40470.5 34175.4 27384.7 26893 26240.6 21323.2 20908.7 16633.3 15778.3 13053.7 10575.1 13500.6 8211.7 7248.19 6716.91 6635.65 6420.43 6073.94 5617.93 5493.05
threshold=0 1 2 912.50000000000011 3 4 5 6 7 1.5000000000000002 8 1.5000000000000002 9 10 11 2.5000000000000004 12 13 14 15 6.5000000000000009 16 17 18 19 4.5000000000000009 20 1.5000000000000002 3.5000000000000004 21
decision_type=5 5 5 2 5 5 5 5 5 2 5 2 5 5 5 2 5 5 5 5 2 5 5 5 5 2 5 2 2 5
left_child=2 5 17 -3 -4 19 15 18 -9 13 28 16 -12 23 -15 -5 22 25 -6 -2 21 -11 -8 -7 -13 -1 -23 -14 -10 -22
right_child=1 3 4 6 7 9 11 8 10 20 12 24 27 14 -16 -17 -18 -19 -20 -21 29 26 -24 -25 -26 -27 -28 -29 -30 -31
leaf_value=0.09925127723744194 0.10550855597075824 0.1256950628005099 0.096276540269144048 -0.058333267778218484 0.02212142528745777 -0.039039924145198364 -0.0050038223366972029 -0.11173513329485499 -0.0099458668448238578 -0.019801726084499066 0.11199802633422694 -0.0975357356468603 0.051735033055563151 0.055785455057925384 -0.017618496751394163 -0.090186826578938395 -0.094501122743966715 0.1140040104760387 -0.10398639006015076 0.01377855088735677 0.013025624253898697 -0.092119619194315772 -0.077937267229116147 -0.078642554330141862 -0.10780961667423308 0.067584309797744838 -0.053683091524322879 0.008093162680227672 -0.086286120324609972 -0.085007043303651317
leaf_count=234592 5500 9494 81995 4108017 20248 1517188 58532 186610 159754 389791 10425 7844802 103729 96373 2081215 1884981 13882207 81566 275073 500048 21334 286157 6850340 314106 13028327 38805 1762461 57959 51644 707291
internal_value=0 -0.761559 0.928869 -0.90352 0.485127 -0.29131 -0.914124 0.129527 0.288412 -0.367638 0.439783 -0.957762 0.634604 -0.244703 -0.115739 -0.674444 -0.88324 1.0615 -0.78016 0.192607 -0.561595 -0.498368 -0.76826 -0.439342 -1.03891 0.972467 -0.581562 0.401757 -0.222476 -0.807881
internal_count=56650564 55348164 1302400 47666700 947437 7681464 47657206 865442 570121 7175916 383511 41664208 172113 4008882 2177588 5992998 20791079 354963 295321 505548 3167034 2438409 6908872 1831294 20873129 273397 2048618 161688 211398 728625
cat_boundaries=0 16 26 31 47 63 67 82 88 92 100 116 120 136 147 151 161 165 180 183 199 213 229
cat_threshold=2097185 0 0 134348832 0 2048 2361344 524289 67375136 0 144712705 0 0 8 135688 262144 672141056 344989713 2 536870916 4194304 0 1024 0 0 134217728 17503265 9775240 1074807044 134224389 1213333504 1 0 0 0 0 2048 2099200 0 67108864 0 2105344 0 0 0 8 262144 0 0 0 16777216 4097 0 0 536870912 16777216 536870912 0 167772416 4194304 33 1073744160 256 84148256 0 0 128 0 0 0 131072 0 0 0 0 262176 0 134218752 0 0 0 512 140511318 604110864 2 69206400 0 65536 16520 33 4457472 16384 0 0 0 32 0 0 0 524288 0 0 0 2218786816 33554944 8192 8388608 0 4 2147483648 32 0 128 603979776 2097156 130 671089920 276824064 0 4 1090789376 0 0 84938752 1536 4194304 134807552 12288 18874372 536870912 0 134217984 327680 524320 1613234192 64 0 0 0 0 0 2048 2359296 1 67112960 0 142615552 536873472 0 0 16384 671088640 1048592 0 0 0 0 1024 0 0 134217728 256 8192 0 536870916 262144 0 0 16781312 0 0 0 0 0 0 0 0 262144 0 1073741824 2560 0 2 1090781184 0 0 1141903360 0 4194304 134742016 12288 23068676 0 64 134218496 327680 1141391360 1076365568 2 0 0 0 4194304 33686016 0 0 0 0 0 0 2097152 134217856 1140850688 0 0 0 67110912 0 8192 134217728 0 0 2147483648 32 2097152 0 536870912 2097154 130
shrinkage=0.1


Tree=14
num_leaves=31
num_cat=26
split_feature=2 0 1 0 2 5 1 0 0 5 1 2 0 2 0 2 1 1 2 2 1 1 0 2 5 1 2 5 2 2
split_gain=5.6486e+06 543790 201129 169768 106684 94213 59794.9 99770.8 55235 44858.2 51717.8 39672.3 50605.7 31123.8 30278.2 29267.6 24766.5 23582.5 22862.6 20974.9 18824.2 18528.5 17660.5 15040.7 13807.7 12850.9 10667.7 10560.1 10333 9561.03
threshold=0 1 2 3 4 1.5000000000000002 5 6 7 1.5000000000000002 8 9 10 11 12 13 14 15 16 17 18 19 20 21 29.500000000000004 22 23 3.5000000000000004 24 25
decision_type=5 5 5 5 5 2 5 5 5 2 5 5 5 5 5 5 5 5 5 5 5 5 5 5 2 5 5 2 5 5
left_child=3 9 5 22 -5 8 -6 -8 23 10 16 17 21 27 -9 -16 26 -4 -18 -12 -17 -13 -1 -3 -15 -20 -2 -7 -14 -22
right_child=1 2 11 4 6 13 7 14 -10 -11 19 12 28 24 15 20 18 -19 25 -21 29 -23 -24 -25 -26 -27 -28 -29 -30 -31
leaf_value=0.11170962502808393 -0.10807383451273758 0.013900067244685439 -0.069181802309031204 0.091598715915573337 -0.13273143978146953 -0.044536464685176892 -0.10876048241406772 -0.033905719122031906 0.051387965405904512 -0.10046661301772851 -0.025132831067139785 -0.036333289649625296 -0.038035581752755288 -0.0082838931051653995 0.10973180495441243 0.057253688066049996 -0.054036267250805139 -0.10519800371229811 -0.039595840319606002 -0.098854438714251591 0.0082430924913100816 -0.092357055342505906 0.093716288978441295 -0.016000209715542082 -0.10112558919067485 -0.083059742661612534 0.058863663677676793 -0.074509866952523082 0.11137272165579837 -0.0944670506267484
leaf_count=89014 36964 619533 2701074 87271 164136 1314162 305012 157597 290729 21143561 200389 747282 20152 773998 10501 99119 3196406 1886316 441928 10363364 66184 421407 266952 2437897 101090 7284586 48827 1340935 6889 27289
internal_value=0 -0.724184 -0.368086 0.901852 0.461173 -0.158773 0.111301 0.220977 0.034257 -0.907936 -0.82334 -0.70778 -0.402979 -0.437627 0.437494 0.566543 -0.700063 -0.828492 -0.716131 -0.966838 0.353662 -0.537178 1.03583 -0.0770854 -0.148226 -0.800209 0.279923 -0.587843 0.829418 -0.111406
internal_count=56650564 55377489 12661464 1273075 917109 6878344 829838 665702 3348159 42716025 21572464 5783120 1195730 3530185 360690 203093 11008711 4587390 10922920 10563753 192592 1168689 355966 3057430 875088 7726514 85791 2655097 27041 93473
cat_boundaries=0 16 21 26 31 47 75 84 94 100 116 121 137 149 157 162 169 184 200 207 214 219 235 241 256 270 285
cat_threshold=2097185 0 0 131104 0 2048 2361344 524289 67375136 0 144712705 0 0 8 135688 262144 383971406 1090551808 1611137025 134217728 1073741824 594108417 537133120 0 8193 8192 726049 9775240 1075331332 671093253 1213333504 1 0 0 0 0 2048 2099200 0 67108864 0 8193 0 0 0 8 262144 36 2408580096 102806519 4210694 0 0 0 0 0 0 0 0 0 0 0 0 0 0 0 0 0 0 0 4096 0 0 0 4 138428510 2232386 2281836554 2105744 8389120 65536 0 0 131072 135531040 67117072 0 536871040 0 0 0 0 0 134217728 4808896 536873216 272 8193 135278592 2048 0 0 0 104860160 33686080 270336 8388608 1024 4 0 32 18874368 138412160 612368384 2359318 130 1052448 343932928 0 128 4194304 1073741824 0 0 1107298816 33555008 262144 8388608 537920768 12 0 16384 18874368 4194432 75497472 16 768 640 738213888 16777232 67108864 262144 1 65536 512 0 0 0 2048 0 0 0 32 0 0 0 524289 0 536871168 0 0 134225920 1476424 0 2202009600 134250496 1183744 2048 64 1090789376 0 0 235950080 0 4194304 134807552 12288 18875396 536870912 0 512 262272 524320 1613236480 1074003968 0 0 155193344 0 4194304 0 0 1024 0 0 0 262144 32 0 64 560537729 536873040 131080 2105345 134217728 0 64 1476416 4609 2185232656 134250496 1183744 0 64 1057 8659080 1048836 4101 134348800 0 0 0 1090519040 0 0 0 537920512 8 536870912 0 136315136 134217728 0 1074006018 768 192 2048 272 8193 0 2048 8 0 0 571474432 135681 262144 1572864 274688 18874380 0 1048640 528640 327680 34 537397248 1073741824 0 0 1073758208 0 0 134217728 0 0 0 0 134217728 0 1073741856 0 0 0 0 0 0 262144 0 0 0 144704512 0 0 0 4096
shrinkage=0.1


Tree=15
num_leaves=31
num_cat=27
split_feature=2 0 1 0 2 5 1 0 5 1 0 2 0 0 2 2 1 1 2 2 2 1 1 2 1 5 2 2 2 1
split_gain=4.88657e+06 513788 175901 161025 97620.3 79001.1 50337.3 78859.6 45878.3 50847.9 45009.1 36273.6 43066.1 28989.3 28294.5 28213.2 22947.9 21710.5 22136.5 18997.6 17870.3 16641.2 15118.3 12831.9 12773.4 9600.63 12386.7 9563.93 8989.81 8295.97
threshold=0 1 2 3 4 1.5000000000000002 5 6 1.5000000000000002 7 8 9 10 11 12 13 14 15 16 17 18 19 20 21 22 29.500000000000004 23 24 25 26
decision_type=5 5 5 5 5 2 5 5 2 5 5 5 5 5 5 5 5 5 5 5 5 5 5 5 5 2 5 5 5 5
left_child=3 8 5 20 -5 10 -6 -8 9 17 23 16 -13 -9 -7 -15 -4 28 -19 -11 -1 -14 -17 -3 27 26 -16 -20 -2 -12
right_child=1 2 11 4 6 14 7 13 -10 19 29 12 21 15 25 22 -18 18 24 -21 -22 -23 -24 -25 -26 -27 -28 -29 -30 -31
leaf_value=0.091442332817643038 -0.10522609923449429 -0.019168161818536381 -0.064962560946086073 0.088381657663824234 -0.12669872751930639 -0.061337874766191604 -0.10291695450927307 -0.033186931936866941 -0.097705168631284409 -0.023884353880109073 -0.029267400584502556 0.10122405240893667 -0.033475396346340579 0.10690720661166085 -0.032585597975393517 0.051478126441796425 -0.1015047119692491 -0.051531853264140039 -0.098121154401569419 -0.09658954432586192 0.11029393293169219 -0.08993065640930438 -0.0095710149657467873 0.0056146155710771013 -0.079960731574495986 -0.08442964807333897 0.0063787779508123633 -0.014524358941062097 0.053016170659022123 0.052160904224532838
leaf_count=263355 36835 1755807 2700937 92046 160787 2085185 289116 178361 21143137 191858 34255 9036 827487 10781 937088 105847 1886453 3451700 146969 9803556 81737 359207 93171 1301623 7598978 134704 373208 291921 48945 256474
internal_value=0 -0.688212 -0.340288 0.874336 0.445341 -0.1451 0.107857 0.206064 -0.875188 -0.787517 0.030956 -0.666715 -0.372538 0.389534 -0.404823 0.522171 -0.786095 -0.669228 -0.684194 -0.943252 1.01437 -0.476807 0.320546 -0.069719 -0.769116 -0.210438 -0.168522 -0.361119 0.255346 0.465124
internal_count=56650564 55375363 12661464 1275201 930109 6878344 838063 677276 42713899 21570762 3348159 5783120 1195730 388160 3530185 209799 4587390 11575348 11489568 9995414 345092 1186694 199018 3057430 8037868 1445000 1310296 438890 85780 290729
cat_boundaries=0 16 21 26 31 47 75 84 90 100 116 126 138 154 162 169 174 189 205 216 240 247 263 269 285 301 316 321
cat_threshold=2097185 0 0 135200 0 2048 2361344 524289 67375136 0 144712705 0 0 8 135688 262144 383971406 1090551808 1611137025 134217728 1073741824 594108417 537133120 0 8193 8192 726049 9775240 1074807044 134222341 1213333504 1 0 0 0 0 2048 2099200 0 67108864 0 2105344 0 0 0 8 262144 36 2274362368 102806519 4210694 1048576 0 0 0 0 0 0 0 0 0 0 0 0 0 0 0 0 0 0 4096 0 0 0 4 140525654 2232386 2281836554 2105744 8389120 65537 0 0 131072 575234240 536873216 272 8193 135278592 2048 135531040 67117072 0 536871040 0 0 0 0 0 134217728 0 0 0 104860160 33686080 270336 8388608 1024 4 0 32 18874368 138412160 612368384 2359318 130 671088640 8208 0 536870912 0 0 0 0 0 134217728 648 738213888 16777232 67108864 262144 0 65536 512 0 0 0 2048 1073741824 0 0 33556992 33555008 262144 0 536871168 4 0 0 18874368 4194432 75497472 16 768 0 0 0 131104 0 0 0 524289 1476424 0 2202009600 134217728 1183744 2048 64 0 536871168 0 0 134225920 1090789376 0 0 235945984 0 4194304 135856128 12288 18875396 536870912 0 512 262272 524320 1613236480 1074003968 0 0 155189248 0 4194304 0 0 1024 0 0 0 262144 1073741856 0 64 0 0 0 0 0 0 2359296 1 67112960 0 142615552 1476426 4609 2185232656 134251520 1183744 0 64 0 0 0 0 0 0 0 0 0 0 0 0 0 0 0 0 4096 23683201 671090768 131080 2105344 134217728 0 64 1073741824 0 0 2248163328 33686081 0 8388608 0 0 2147483648 16416 50331648 128 1686110208 36 128 192 2048 272 8193 0 2048 0 0 0 3288350720 0 0 142606336 1049600 8 0 16384 0 134217728 536870912 262150 2 8 0 0 4194816 136325 278529 0 2097408 584 0 1048640 528656 4259840 1073741827 2147483650 80 8 0 0 571474432 135681 262144 1572864 274688 18874380 0 1048640 524544 327680 34 537397248 33636352 0 0 0 8192
shrinkage=0.1


Tree=16
num_leaves=31
num_cat=14
split_feature=2 3 2 3 2 3 2 4 2 2 3 2 5 4 2 2 4 2 3 4 2 3 2 4 3 4 2 5 2 3
split_gain=4.22749e+06 452601 285543 111155 114908 76328.2 65152.1 36252 32709.3 27694.5 32339.1 24186.1 23660.5 22000.3 20361.8 19928.7 18757.9 18336.7 22823.2 16171 16165 14569.3 14464.1 14343.8 13679.7 12995.8 12687.1 12208.6 11495.9 10151.6
threshold=0 159.50000000000003 1 355.50000000000006 2 26.500000000000004 3 123286.50000000001 4 5 2748.5000000000005 6 3.5000000000000004 912.50000000000011 7 8 9971.0000000000018 9 12444.500000000002 9971.0000000000018 10 12444.500000000002 11 110619.00000000001 20539.500000000004 145746.50000000003 12 2.5000000000000004 13 509.50000000000006
decision_type=5 2 5 2 5 2 5 2 5 5 2 5 2 2 5 5 2 5 2 2 5 2 5 2 2 2 5 2 5 2
left_child=3 5 9 -1 14 15 7 21 -7 29 -11 -10 20 -8 16 -2 -5 -12 23 -13 25 28 -23 -19 -14 -6 -9 -21 -4 -3
right_child=1 2 6 4 12 8 13 26 11 10 17 19 24 -15 -16 -17 -18 18 -20 27 -22 22 -24 -25 -26 -27 -28 -29 -30 -31
leaf_value=0.10452905121544531 -0.015254229255265714 -0.014256939938262634 0.0049393070637217922 0.012097778276060882 0.039230462362186802 -0.076780592628680075 0.081349091796632231 -0.064951167217114261 -0.031890880128031422 -0.044291581615331255 -0.028645634719973119 0.14192047858635942 -0.094447600163309914 -0.093029402834974087 0.066891505275153473 0.080175831711675943 0.10362888096622017 0.024393154712856566 0.056064238925010584 0.03413729917682564 -0.053457168400985661 0.075176786007899329 -0.051518740647819916 -0.031425639269553794 0.00011745382100781324 -0.053461246927185305 -0.082155753875051751 -0.043808180167159788 -0.056635940505607607 -0.057813213054491254
leaf_count=208503 95023 289136 105437 33587 361313 422112 6975 5529641 530556 2586170 1231020 5155 164180 30316926 207073 239340 56904 121949 174799 432359 99488 64785 84763 524980 100642 72696 8031981 121169 736225 3695677
internal_value=0 -0.65288 -0.720892 0.846452 0.623657 0.233642 -0.839783 -0.694621 -0.0772932 -0.376394 -0.281347 0.0712679 0.157799 -0.926396 0.832118 0.692609 0.984843 -0.104168 0.0825201 0.307483 0.27329 -0.30244 0.258946 -0.0968005 -0.402258 0.339253 -0.742349 0.218507 -0.425949 -0.539301
internal_count=56650564 55346178 53500464 1304386 1095883 1845714 44876733 14552832 1511351 8623731 4638918 1089239 798319 30323901 297564 334363 90491 2052748 821728 558683 533497 991210 149548 646929 264822 434009 13561622 553528 841662 3984813
cat_boundaries=0 16 32 43 59 75 91 107 116 132 147 163 178 194 209
cat_threshold=2097185 0 0 134352928 0 2048 2361344 524289 67375136 0 144712705 0 0 8 135688 262144 0 0 0 3238019072 131136 0 8388608 537920768 1028 2684354560 16416 52428800 134217728 536870944 1074004258 386 2097184 0 0 0 0 2048 2361344 0 67371008 0 8192 16777216 0 0 101714432 4096 8192 134283264 12288 72 0 0 134218496 4521984 8388608 2623488 576 32768 0 0 805323264 33554560 278529 1048576 2097152 4194368 134217728 537919552 4112 268435588 1073741826 2684356896 80 0 0 0 1073741824 64 0 8388608 1280 1028 0 0 0 0 536870912 258 2 655360 0 0 102268928 4198917 0 8192 262144 520 0 16640 185073664 33554432 67633440 2129936 131073 2097152 0 0 0 0 0 2048 0 262144 16818176 0 0 1049088 135168 16385 65536 2359296 1096 0 1048640 16777488 65664 1073741825 2684881152 208 0 0 0 2147483648 131072 0 0 537919488 0 0 16384 0 0 0 262144 1 0 0 32 0 0 0 524289 4096 0 144704512 0 0 0 0 262144 0 0 0 67110912 0 8192 134217728 0 64 0 0 134218240 0 0 2099200 0 0 0 33556992 0 0 0 0 0 0 0 0 0 8388608 0 512 0 0 0 0 4096 0 0 0 8 0 0 134217728 0 0 2048
shrinkage=0.1


Tree=17
num_leaves=31
num_cat=18
split_feature=0 4 0 1 5 4 0 1 5 0 0 1 0 4 4 1 1 1 1 0 0 4 5 4 1 5 4 5 1 0
split_gain=3.6633e+06 386160 421240 168189 63332.2 56570.6 52843.4 46973.2 53969.7 27005 25156.4 21514.1 19473.5 18177.2 17644 17591.7 17207.8 15551 15431.1 14214.6 13853.2 16364.9 13306.1 12483 12222.4 10509.8 8699.46 8574.46 7429.09 7223.88
threshold=0 1967.0000000000002 1 2 1.5000000000000002 58296.500000000007 3 4 1.5000000000000002 5 6 7 8 171102.00000000003 123222.00000000001 9 10 11 12 13 14 1887881.0000000002 7.5000000000000009 762363.50000000012 15 2.5000000000000004 110619.00000000001 3.5000000000000004 16 17
decision_type=5 2 5 5 2 2 5 5 2 5 5 5 5 2 2 5 5 5 5 5 5 2 2 2 5 2 2 2 5 5
left_child=5 9 3 4 10 19 13 8 15 -2 -3 26 25 14 -7 23 -16 -12 27 -1 -17 -22 -14 29 -11 -6 -8 -5 -9 -4
right_child=1 2 7 18 12 6 11 28 -10 24 17 -13 22 -15 16 20 -18 -19 -20 -21 21 -23 -24 -25 -26 -27 -28 -29 -30 -31
leaf_value=0.10604618172882695 -0.070323798626623593 0.032198600932027914 0.0033836307562703271 -0.058639625759693476 -0.032515627238259404 0.073240129092985495 0.041732742194219824 -0.089307922033881257 -0.089070817586089285 -0.062200572701784335 0.0050920183298368508 -0.072669950304745573 -0.0016475288008793816 0.088680888901891061 -0.1530084106797456 -0.044173657921675241 0.033461794405093705 -0.020122848918058142 -0.096644583382051702 0.079287731700888986 -0.073657115837185136 -0.028931720294079585 -0.06337872946246724 -0.089508420168436104 0.10180650359172637 -0.060167226882374407 -0.036793138901405495 -0.099696815108243131 -0.10226776773656431 -0.10470664664185519
leaf_count=104415 40159 362527 402774 2133627 1318782 117900 99119 8885120 13545368 17480 1617364 87744 556682 154243 16488 2032676 94294 2460078 1738836 105565 7981796 654327 245814 191082 47961 2326528 65684 448320 8739778 58033
internal_value=0 -0.608351 -0.64429 -0.324618 -0.178838 0.856367 0.68503 -0.830133 -0.747295 0.871142 -0.0307831 0.091785 -0.396984 0.771161 0.597112 -0.608409 0.235334 -0.0918305 -0.767209 1.00427 -0.64143 -0.696156 -0.141256 -0.221322 0.970682 -0.493043 0.292204 -0.647198 -0.956634 -0.0501307
internal_count=56650564 55805112 55699512 13208558 8887775 845452 635472 42490954 24866056 105600 4439969 252547 4447806 382925 228682 11320688 110782 4077442 4320783 209980 10668799 8636123 802496 651889 65441 3645310 164803 2581947 17624898 460807
cat_boundaries=0 10 15 20 21 27 45 49 53 55 60 64 69 76 81 93 121 128 131
cat_threshold=537461793 1075128456 1589508 536877605 1209139200 0 1024 0 0 134217728 85199744 880803889 263170 16384 4194304 38757376 0 0 8193 134217728 537395200 38363200 536871168 0 8193 1060864 2048 1074061824 67240960 268830722 16640 270848 65536 524288 66048 134144 0 0 0 0 0 0 0 0 16 17826048 268435457 262146 16384 38674434 0 0 8193 84148736 536870960 64 536871168 0 1 8192 3422554292 2226246709 100704773 4194304 4718592 0 0 1 134217728 2484114250 512 4194304 0 1048576 2048 64 1057 270472 1048836 4613 134348800 138543108 134217728 3238002705 0 0 1 0 0 0 0 0 2048 4 1200620544 41430 0 0 0 0 0 0 0 0 0 0 0 0 0 0 0 0 0 0 0 0 4096 0 0 0 4 269878680 266240 2152726800 134217728 0 0 64 53262 64 8
shrinkage=0.1


Tree=18
num_leaves=31
num_cat=16
split_feature=0 3 0 2 2 2 5 3 3 0 3 0 3 5 3 2 0 0 0 2 0 2 2 5 3 3 3 5 3 0
split_gain=3.16559e+06 572265 385375 142014 56391.4 54942.6 40710.3 34857.9 34451.5 48137.2 29505.4 44912.1 28048.2 24722.2 18005.8 17423.8 17295 14711 14397.2 14390.8 13464.4 13144.7 11041.8 10371.1 13088.8 10136.1 14116.3 9118.56 8965.89 8647
threshold=0 76.500000000000014 1 2 3 4 2.5000000000000004 374.50000000000006 12444.500000000002 5 444.50000000000006 6 26.500000000000004 3.5000000000000004 492.50000000000006 7 8 9 10 11 12 13 14 2.5000000000000004 12444.500000000002 42.500000000000007 1540.5000000000002 1.5000000000000002 476.50000000000006 15
decision_type=5 2 5 5 5 5 2 2 2 5 2 5 2 2 2 5 5 5 5 5 5 5 5 2 2 2 2 2 2 5
left_child=3 6 4 17 14 -4 12 18 13 -10 -5 -12 21 16 27 -9 -6 -1 -7 -14 -21 -2 29 -16 -25 -19 -27 -3 -18 -23
right_child=1 2 5 10 8 7 -8 15 9 -11 11 -13 19 -15 23 -17 28 25 -20 20 -22 22 -24 24 -26 26 -28 -29 -30 -31
leaf_value=-0.048322325283199297 -0.0063432597655348451 0.0059370052094068447 0.073792517245619527 0.10370875798055622 0.011224762983937618 -0.08083714691643934 -0.041256283641557652 -0.076192697589592087 -0.026534385402298279 0.079397117326982389 0.10445695399755073 0.055852248842023958 0.080836537035389386 -0.068396329749170731 -0.048032096710248197 -0.091718840827239023 0.0012774698999969531 0.094035084568989569 -0.033705974936481857 0.040642649391817137 -0.03113187147979023 -0.10755652498391105 0.096979475198585186 -0.084736936271190652 -0.039624337097010562 -0.018114271604318468 0.03503440578479846 -0.052530852593060375 -0.029983638479248266 0.05554682474344274
leaf_count=117937 65499 383624 10946 128104 387995 1003792 204901 9712706 455873 195338 40222 261652 66567 711310 4579889 29723764 360055 5476 1376781 151930 287442 15357 139211 1627619 702821 124362 199158 268887 3263437 77909
internal_value=0 -0.578237 -0.653896 0.822529 -0.337585 -0.842558 0.517347 -0.851152 -0.196086 0.219676 0.927513 0.778712 0.615512 -0.259851 -0.502767 -0.876563 -0.208116 0.179961 -0.510167 0.253671 0.0682368 0.807674 0.864943 -0.546927 -0.703662 0.254979 0.199311 -0.136455 -0.261872 0.438512
internal_count=56650564 55773653 54764837 876911 12936848 41827989 1008816 41817043 5374008 651211 429978 301874 803915 4722797 7562840 39436470 4011487 446933 2380573 505939 439372 297976 232477 6910329 2330440 328996 323520 652511 3623492 93266
cat_boundaries=0 10 15 30 45 56 60 64 79 84 94 103 119 124 140 156 159
cat_threshold=537461793 1083517064 1589508 134224389 1209139200 0 1024 0 0 134217728 85199744 335560753 272891906 536871072 4194304 0 0 0 4210688 0 0 262144 0 0 536870912 8388609 33554432 138412032 1 34 1073741824 0 0 1111624224 576 0 8388608 1025 16778340 0 134218752 134217728 128 1149239296 536875302 0 0 0 0 0 0 2099200 0 67108864 0 8193 262912 0 0 536870912 1057 8650888 1065216 5 16777216 0 0 336611360 0 0 134283264 798721 4198404 0 545259520 134218240 327680 540672 1613236752 256 16384 0 536870944 4194304 32 1073750016 0 134217728 0 0 0 0 0 134217728 312512592 153227330 2835353625 2105616 8388608 8388608 8388608 256 1024 1092886536 0 0 1090519040 1024 0 10487808 1572865 85988352 536870912 2105377 524544 262144 0 266248 256 137759620 0 0 128 4194304 17080320 0 0 1049088 4096 16385 65536 2359296 2359368 0 1048640 16777232 4259968 1 2684357376 208 131072 0 0 574756864 37880961 262144 8912896 4352 4195840 2147483648 134217728 525056 268566532 0 2621440 256 1218453568 136319042 2835484698
shrinkage=0.1


Tree=19
num_leaves=31
num_cat=11
split_feature=0 3 0 3 0 4 4 0 5 0 0 3 0 5 0 5 0 0 3 3 5 3 3 5 3 3 3 3 4 0
split_gain=2.73236e+06 499320 364237 85208.3 96313.7 75877.3 73126.9 49304.3 38626.1 35294.7 33848.5 20957.6 44894.4 26830.6 15314.7 15142.7 15458 14497.8 11211.6 10886.4 10246.3 9663.53 9492.77 9354.09 9126.92 8590.07 12869.6 8253.25 11627.3 9688.19
threshold=0 159.50000000000003 1 138.50000000000003 2 33687.000000000007 1967.0000000000002 3 2.5000000000000004 4 5 12444.500000000002 6 3.5000000000000004 7 2.5000000000000004 8 9 26.500000000000004 26.500000000000004 2.5000000000000004 11057.500000000002 444.50000000000006 2.5000000000000004 492.50000000000006 228590.00000000003 15443.500000000002 2807.5000000000005 15285.000000000002 10
decision_type=5 2 5 2 5 2 2 5 2 5 5 2 5 2 5 2 5 5 2 2 2 2 2 2 2 2 2 2 2 5
left_child=3 5 7 -1 27 -2 17 20 9 18 -6 13 -13 14 -9 16 -8 -4 -7 -11 -3 -22 -18 -12 -16 26 -14 28 -5 -30
right_child=1 2 6 4 10 8 15 11 -10 19 23 12 25 -15 24 -17 22 -19 -20 -21 21 -23 -24 -25 -26 -27 -28 -29 29 -31
leaf_value=0.10258203813364526 0.10112820665987668 -0.045529336996313501 -0.14332024126228865 0.053504005177070373 0.10360373138221113 0.071214511783040016 -0.066038663237968684 0.0044625145276061045 -0.058128048082119826 0.022246829476388258 0.068183606124513629 -0.027794292089164674 0.11963624518243865 -0.06733727157387176 0.0017327362579346698 -0.094065699682223489 -0.059973081039248366 0.060216821684422342 0.029341423798957839 -0.036488764024767154 -0.084571783041021767 -0.039706778342608134 -0.086729643879786988 0.028642536147946041 -0.030062881950039207 0.13118678518219942 0.021440218677945176 0.030634512723963225 -0.0022867510399878009 -0.078758262123049511
leaf_count=117702 60340 4164006 23324 23872 41358 139866 5882639 528202 405324 135359 160977 770732 33184 920393 367677 14096396 1448686 44352 546095 599949 1377895 562853 19414262 64982 4079763 26708 145648 232562 156082 79376
internal_value=0 -0.547817 -0.634259 0.794864 0.607496 0.329827 -0.830957 -0.325194 0.141145 0.256834 0.807794 -0.219587 0.0644467 -0.267942 -0.217191 -0.846787 -0.802176 0.430901 0.472476 -0.154008 -0.525554 -0.706864 -0.846686 0.609526 -0.267664 0.655074 0.494576 0.165153 -0.00736166 -0.147932
internal_count=56650564 55773653 53886720 876911 759209 1886933 40909659 12977061 1826593 1421269 267317 6872307 976272 5896035 4975642 40841983 26745587 67676 685961 735308 6104754 1940748 20862948 225959 4447440 205540 178832 491892 259330 235458
cat_boundaries=0 10 15 25 29 32 36 37 42 50 59 60
cat_threshold=537461793 1083517064 1589508 134224389 1209139200 0 1024 0 0 134217728 85330816 335560753 272891906 536871072 4194304 536937504 8396800 524288 134222336 1074921472 0 0 0 0 134217728 84279424 67125248 0 536871040 1311628 0 1073741824 1 262280 1048832 5 768 256 268435457 0 32 4194304 138420228 536870912 1025 16384 64 2098209 8388608 256 10534912 132096 133120 67109120 262656 65536 0 512 134144 536871936
shrinkage=0.1


Tree=20
num_leaves=31
num_cat=19
split_feature=2 3 2 3 2 1 1 2 1 1 3 5 2 5 2 2 5 3 3 2 5 3 2 2 2 3 2 2 2 1
split_gain=2.34582e+06 298104 233602 109446 85329 78209.2 76068.3 76549.9 54803.5 32730.7 26905.8 21107.3 19803.5 19018.1 18534.4 17955.7 16361.4 14408 14151.2 13628.5 13347.1 12123 11944.4 11879.4 9950.98 9895.09 9835.52 8699.87 8650.71 8416
threshold=0 159.50000000000003 1 204.50000000000003 2 3 4 5 6 7 26.500000000000004 1.5000000000000002 8 2.5000000000000004 9 10 1.5000000000000002 8490.5000000000018 7462.5000000000009 11 1.5000000000000002 12444.500000000002 12 13 14 4646.0000000000009 15 16 17 18
decision_type=5 2 5 2 5 5 5 5 5 5 2 2 5 2 5 5 2 2 2 5 2 2 5 5 5 2 5 5 5 5
left_child=3 8 5 -1 12 16 7 11 10 20 28 17 -5 19 29 -12 21 -4 -13 -9 27 22 -3 -23 -17 -18 -27 -6 -2 -10
right_child=1 2 6 4 9 -7 -8 13 14 -11 15 18 -14 -15 -16 24 25 -19 -20 -21 -22 23 -24 -25 -26 26 -28 -29 -30 -31
leaf_value=0.099096579175087199 0.010548873002524611 0.00094887991616793776 -0.035769854150017634 0.090008805771354158 -0.040661088734586584 -0.071253642377492918 -0.091345194643013383 -0.080967016210125572 0.037448372373385996 -0.035923247087285226 -0.050804262539714512 -0.071374507071408896 0.055253976923135661 -0.088687744916094963 -0.050199006212639397 -0.0012035114836042218 -0.042417126002168098 0.016321233660433466 -0.033400934644969453 -0.057303803245116948 -0.00085725740168145605 0.07988090889201982 -0.025052869026209762 -0.0097548015052307882 0.051091725399487899 0.0028065897263091291 -0.044886298287843261 0.054475757310893262 0.086444586067216486 -0.06108398950904631
leaf_count=174192 55648 1470021 4834065 94220 42688 2226132 15555934 4961658 148050 415571 233635 3001483 203005 8875557 622586 296844 1578651 360774 1338268 6505463 233635 52069 1558039 129775 317336 579458 468214 147117 121485 48991
internal_value=0 -0.525072 -0.590064 0.740553 0.512509 -0.260067 -0.714116 -0.622091 0.21373 0.111339 0.446285 -0.423273 0.724562 -0.757796 -0.255698 0.201856 -0.149201 -0.314649 -0.592081 -0.670431 0.311846 -0.0617347 -0.0970285 0.37317 0.333351 -0.298576 -0.12822 0.483105 0.774195 0.196776
internal_count=56650564 55340136 53495561 1310428 1136236 8062359 45433202 29877268 1844575 839011 1024948 9534590 297225 20342678 819627 847815 5836227 5194839 4339751 11467121 423440 3209904 3028060 181844 614180 2626323 1047672 189805 177133 197041
cat_boundaries=0 16 32 46 52 58 74 78 85 94 110 126 142 157 173 189 205 220 236 238
cat_threshold=2359329 0 0 134352928 0 2048 2361344 524289 67375136 0 144712705 0 0 8 135688 262144 0 0 0 3238019072 131136 0 8454144 537920512 1028 2684354560 16416 52428800 134217728 536870944 1074004258 450 2097152 0 0 0 0 2048 2099200 0 67371008 0 8192 0 0 8 40854784 0 272 8193 134217728 2048 594501633 4160 0 8192 8192 2048 0 0 0 101714432 4096 8192 134217728 4352 8 0 0 134218496 4521984 8912896 2623488 512 560472273 537135473 0 1 560554129 671352896 2148532232 2105345 134217728 0 64 2097152 0 0 0 0 0 2048 0 262144 1090519048 0 0 3242213376 577 4194304 0 1058048 18875396 536870912 0 524288 168034304 32 1073741826 768 557056 0 0 806371840 33558528 278529 1056768 2097152 4194368 134217728 536870976 33558544 132 1073741826 2684387360 64 1074429952 0 0 541589504 37749893 4210689 8192 0 512 0 1048576 528400 33554560 1073742082 4 131089 0 0 0 0 131072 0 0 537920512 0 536870912 16384 52428800 0 536870912 1074004000 0 0 0 1090535424 0 0 0 1048576 0 2684354560 32 2097152 134217728 32 1073742112 386 0 0 0 67665920 4194949 0 134217728 262144 524 536870912 1065248 134742016 306315264 67633408 2064 131585 0 0 0 2164277248 131072 0 0 1024 0 2147483648 16416 52428800 0 536870912 1074004000 128 262145 0 0 134352896 0 0 0 0 0 0 2097153 0 0 0 4104 16818176 0 0 5243392 131073 16385 65536 2363392 1608 0 1048640 524304 65664 1 2684356640 336 303551754 2260996
shrinkage=0.1


Tree=21
num_leaves=31
num_cat=21
split_feature=0 0 4 2 5 5 2 4 0 2 2 2 0 2 0 5 5 2 0 0 0 0 0 5 0 0 2 2 5 5
split_gain=2.05488e+06 312291 230037 117854 47204.3 46151.1 37574 34502.6 24195.3 21783 20410.3 19400.1 16043.3 15223.9 10914.9 9926.51 7819.09 7713.87 7604.99 7438.37 7049.95 5437.11 4981.52 4532.37 4298.32 4077.7 4050.67 4045.61 4366.84 4043.49
threshold=0 1 1967.0000000000002 2 2.5000000000000004 1.5000000000000002 3 912.50000000000011 4 5 6 7 8 9 10 27.500000000000004 4.5000000000000009 11 12 13 14 15 16 1.5000000000000002 17 18 19 20 1.5000000000000002 6.5000000000000009
decision_type=5 5 2 5 2 2 5 2 5 5 5 5 5 5 5 2 2 5 5 5 5 5 5 2 5 5 5 5 2 2
left_child=3 5 9 12 6 7 13 -2 -5 -3 21 29 23 -4 -11 19 24 25 -14 -13 -12 -9 -6 -1 -10 -8 -23 28 -15 -7
right_child=1 2 4 8 22 11 17 10 16 14 20 15 18 27 -16 -17 -18 -19 -20 -21 -22 26 -24 -25 -26 -27 -28 -29 -30 -31
leaf_value=0.067735335055818149 0.099646713581675622 -0.079475330343287215 0.019035172903286546 0.10261137838307773 -0.081038056152102966 -0.050656286786362428 -0.079811465264832515 0.015586824523925766 0.042881408540972138 -0.16543538130567473 -0.055393579775275939 -0.030544195257122455 0.016879209392487583 -0.031297332048573871 0.098035583328700937 -0.079716823193579506 0.030326737358921829 -0.068504196151059127 -0.034406676543916145 -0.0031635586513060476 -0.019674749891061771 -0.049128959515686146 -0.095076291253071682 0.024974670851895541 0.080060205822883534 -0.10500143541433403 -0.0024506182193134978 -0.054941821042788885 -0.059145828106862953 -0.075258180095305174
leaf_count=40496 10092 40361 136222 81417 5855030 2228123 5760832 533842 24918 7877 531004 2231513 282345 1615604 25087 258726 30538 12020972 124167 495146 4080413 82715 8618243 33314 228840 934493 1596302 6890180 1006388 845364
internal_value=0 -0.489331 -0.672849 0.749904 -0.715502 -0.207147 -0.640821 -0.0984156 0.885453 0.803171 -0.119749 -0.385754 0.244265 -0.483609 0.935918 -0.268455 0.758528 -0.736374 0.099022 -0.23427 -0.222411 0.017463 -0.89348 0.548118 0.78263 -0.833094 -0.0458836 -0.507494 -0.401723 -0.569699
internal_count=56650564 55804529 42911289 846035 42837964 12893240 28364691 6834368 365713 73325 6824276 6058872 480322 9648394 32964 2985385 284296 18716297 406512 2726659 4611417 2212859 14473273 73810 253758 6695325 1679017 9512172 2621992 3073487
cat_boundaries=0 10 17 32 48 58 74 90 106 111 126 131 147 151 155 162 167 179 186 194 199 215
cat_threshold=537461793 1075128456 1589508 536877605 1209139200 0 1024 0 0 134217728 152439680 343949361 272892930 201343104 4194304 0 65536 0 0 0 4210688 0 0 262144 0 0 536870912 144703489 167772160 134217728 1 2 1076109312 0 0 252710912 1536 4194304 134807552 12288 18875392 0 536870912 134217728 262144 524320 1613238272 64 1057 8328 1048832 4101 134217728 0 0 0 0 134217728 2392064 0 0 1212155904 0 262144 134217728 1 2359296 536870912 136314880 0 4194304 0 4370 256 1073741824 0 0 1077953024 135168 262144 134217728 537920768 8 536870912 8404992 2097408 4194304 0 1076101154 768 1073741824 0 0 1111509504 33554944 262144 262144 257 16777252 0 142607360 150995216 134217856 1149239296 256 256 524288 1048576 0 0 1073872896 1074003968 0 0 150999040 0 0 0 0 0 0 0 0 262144 0 1073745920 40960 131072 0 256 8192 655368 0 0 537412128 37884033 278529 0 524288 8 0 135266304 4112 4194432 2 262146 784 536871936 0 0 536870912 135531136 268435456 4194306 67108864 134348800 16400 0 128 0 0 65536 18088192 0 2 0 4194304 73408520 134217728 3355447297 16 0 0 0 0 0 0 0 2048 0 1073741824 0 2080 1073741824 0 1024 270585930 32768 0 8192 64 10486816 8388608 256 0 0 0 1073758208 131072 8192 0 0 0 0 4194304 65536 0 18875392 0 0 0 0 32 0 64
shrinkage=0.1


Tree=22
num_leaves=31
num_cat=19
split_feature=0 3 0 1 3 0 3 1 1 1 0 5 3 0 0 5 0 3 3 1 1 1 3 0 5 1 1 0 3 1
split_gain=1.76313e+06 352661 321785 116805 87574.4 88083.2 48960.7 42749.1 38627.1 35306.5 29850.5 28929.8 23122.6 27049 22096.9 21907.8 15407.3 15085.1 14817.9 14324.3 13923.3 12834.6 10915.8 10626.1 10260.9 9608.75 9009.67 8418.71 8924.04 9578.47
threshold=0 159.50000000000003 1 2 95.500000000000014 3 12.500000000000002 4 5 6 7 2.5000000000000004 4419.0000000000009 8 9 3.5000000000000004 10 11943.500000000002 444.50000000000006 11 12 13 558.50000000000011 14 4.5000000000000009 15 16 17 355.50000000000006 18
decision_type=5 2 5 5 2 5 2 5 5 5 5 2 2 5 5 2 5 2 2 5 5 5 2 5 2 5 5 5 2 5
left_child=4 6 3 10 -1 -6 25 11 -7 16 -3 14 15 26 18 20 -8 27 -4 -16 22 -5 -12 -24 -18 -2 -14 -10 -29 -30
right_child=1 2 7 21 5 8 9 -9 17 -11 12 -13 13 -15 19 -17 24 -19 -20 -21 -22 -23 23 -25 -26 -27 -28 28 29 -31
leaf_value=0.099157475793483482 0.10886325107750823 -0.03390849185830435 -0.026136262213271279 -0.052477206426353319 0.099752378528770988 0.044642711424289841 -0.018841568169649374 -0.093636575220506738 0.061256145760332184 -0.028685283390663757 0.030294994154633159 -0.084085816591674245 0.017693263578963711 0.064553510676246165 0.082497427271153737 -0.062577195927355167 0.050965815070615199 0.038972572982951099 -0.075817359526118636 -0.04802979963840126 -0.033236336996876274 -0.085936435152315957 0.028971561838860516 -0.013865255928285218 -0.054906967743677641 0.057927836113189739 -0.015081639662162138 0.034528770473234972 -0.039219936540042175 -0.12626699861446519
leaf_count=109934 18237 3916436 731140 1725700 42943 475214 337212 12957538 5127 822150 274117 10672695 710150 203767 5053 588568 525181 45971 8862386 7685018 857724 2132635 149697 1599324 58571 124937 802958 13008 139199 57974
internal_value=0 -0.462604 -0.543181 -0.249965 0.713892 0.521014 0.296597 -0.753752 0.329419 0.102076 -0.130248 -0.676557 -0.0470938 0.142984 -0.593974 -0.146041 0.336335 -0.150275 -0.713804 -0.463972 -0.0895602 -0.697852 -0.0102868 -0.0741889 0.457743 0.751633 0.0151038 -0.357291 -0.446214 -0.572427
internal_count=56650564 55761194 53874906 12961076 889370 779436 1886288 40913830 736493 1743114 9102741 27956292 5186305 1716875 17283597 3469430 920964 261279 9593526 7690071 2880862 3858335 2023138 1749021 583752 143174 1513108 215308 210181 197173
cat_boundaries=0 10 15 20 24 30 37 41 42 44 50 57 62 66 72 74 77 81 86 91
cat_threshold=537461793 1083517064 1589510 536877573 135397376 0 1024 0 0 134217728 85330816 335560753 268697600 32 4194304 577725696 64 0 8193 134217728 1 262280 1065216 5 595550209 266304 2148532232 134225921 1060864 2048 560472209 671352912 1052672 134225920 0 0 64 560537745 537135136 8 1 67502080 2816 16400 312479834 555909186 536870920 203424016 1082139136 65536 128094290 889339904 805306368 2105648 8388608 65536 65536 555745281 262208 8 8192 8192 541597696 0 0 1 269517385 4608 0 0 0 2048 256 268451841 555761873 537135481 8 38354944 64 0 8192 524288 65536 524292 536875520 134348800 35114314 4872 2147680288 2097235 135266304
shrinkage=0.1


Tree=23
num_leaves=31
num_cat=18
split_feature=0 3 0 1 3 0 3 1 1 5 5 3 1 0 0 0 3 1 3 0 1 1 3 1 1 5 0 0 3 3
split_gain=1.51349e+06 303397 304506 105017 83062.6 82460.5 43394.5 42716.7 30780.6 28624 27388 30478 26214.4 21046.9 19055.1 17951.9 17841.4 14225.9 14014.2 13418.5 12439.1 12174.5 10815.5 10297.8 9023.85 7926 9367.76 7826.15 7434.46 7404.26
threshold=0 159.50000000000003 1 2 95.500000000000014 3 26.500000000000004 4 5 2.5000000000000004 3.5000000000000004 11515.500000000002 6 7 8 9 228590.00000000003 10 444.50000000000006 11 12 13 11943.500000000002 14 15 2.5000000000000004 16 17 509.50000000000006 4716.0000000000009
decision_type=5 2 5 5 2 5 2 5 5 2 2 2 5 5 5 5 2 5 2 5 5 5 2 5 5 2 5 5 2 2
left_child=4 6 3 10 -1 -6 17 9 25 13 11 14 19 18 24 -13 29 -2 -4 -8 -5 -15 -10 -16 28 26 -7 -18 -3 -12
right_child=1 2 7 20 5 8 12 -9 22 -11 16 15 -14 21 23 -17 27 -19 -20 -21 -22 -23 -24 -25 -26 -27 -28 -29 -30 -31
leaf_value=0.097828895642859515 0.080732939014288518 0.021766417421027091 -0.024047293536402503 -0.05040661704050417 0.09881457201246073 0.059412081500917938 -0.025440766059279776 -0.091591878035143376 -0.031138851703617933 -0.081673211595029119 -0.066192019914638509 0.0060300820929009733 -0.038809521047568345 0.078755866153143825 0.012522143048866258 0.077931896099171213 -0.0064714928025431332 0.032658304469606186 -0.072969229007177602 0.037173532316389604 -0.084125857583771266 -0.044969053504179915 0.03419802647282285 -0.010865629835815066 -0.046209743615135579 0.014435545319649846 0.029615362063091583 0.10289183111773564 -0.022188101101232455 -0.031889121368613653
leaf_count=109179 130262 222361 731139 1878665 41793 149309 364214 12957538 196982 10672695 1013698 414180 665286 5053 1161880 134409 127041 223085 8862413 504456 1987943 7684992 43637 1809538 1113779 93493 216485 28436 2145745 960878
internal_value=0 -0.433259 -0.510666 -0.227317 0.693942 0.501308 0.272492 -0.725397 0.313923 -0.646627 -0.115792 -0.0601733 0.0178152 -0.563091 -0.108025 0.382391 -0.402328 0.582902 -0.684278 0.231981 -0.663742 -0.434494 -0.12966 -0.00703864 -0.253312 0.420227 0.474795 0.362829 -0.172143 -0.485796
internal_count=56650564 55799686 53912383 12998553 850878 741699 1887303 40913830 699906 27956292 9131945 7001892 1533956 17283597 6453303 548589 2130053 353347 9593552 868670 3866608 7690045 240619 2971418 3481885 459287 365794 155477 2368106 1974576
cat_boundaries=0 10 15 20 24 30 37 40 46 49 53 58 65 71 76 80 85 92 94
cat_threshold=537461793 1075128456 1589510 536877573 135397376 0 1024 0 0 134217728 85330816 343949361 268697600 32 4194304 577725696 64 0 8193 134217728 1 262280 1048832 5 595550209 266304 2148532232 134225921 1060864 2048 1634214033 704907344 2148536328 136323072 0 0 64 828974225 536909840 8 312479834 555913282 536870920 203424016 8397312 65536 67504256 67108880 268697600 67371776 16384 0 32 560480465 671418745 8 1 8192 61001810 822231040 805306369 2105648 12582912 0 65536 286298697 4608 4194304 0 1048576 2048 555745281 262208 8 8192 8192 543686656 64 0 8193 4726784 0 0 1 134217728 524288 1074857984 16390 2048 134217728 0 1024 67502592 16
shrinkage=0.1


Tree=24
num_leaves=31
num_cat=27
split_feature=0 0 4 2 1 1 4 2 1 2 0 2 1 1 2 2 1 1 2 2 2 0 1 2 1 4 1 0 2 0
split_gain=1.29482e+06 240130 181508 110361 102831 53094.5 32422.3 31096.9 27993.7 25699.1 25307 21385.6 19636.4 15780.3 14317.3 12956.1 12159.7 10564.7 9706.97 9488.35 9265.58 8638.96 8116.29 7457.44 7075.31 5876.25 5754.16 5684.82 5163.9 4889.42
threshold=0 1 1967.0000000000002 2 3 4 912.50000000000011 5 6 7 8 9 10 11 12 13 14 15 16 17 18 19 20 21 22 6779.5000000000009 23 24 25 26
decision_type=5 5 2 5 5 5 2 5 5 5 5 5 5 5 5 5 5 5 5 5 5 5 5 5 5 2 5 5 5 5
left_child=3 4 14 8 9 7 -6 29 24 13 -5 26 19 -2 -3 28 18 27 -8 -9 -19 -16 -10 -18 -1 -22 -7 -11 -14 -4
right_child=1 2 5 10 6 11 16 12 22 17 -12 -13 15 -15 21 -17 23 20 -20 -21 25 -23 -24 -25 -26 -27 -28 -29 -30 -31
leaf_value=0.04179093045543094 -0.0050426164331319259 -0.06684794685543434 -0.095158357367167559 0.068563109214730175 0.091428381999337019 0.077268197682591286 -0.031012915186265706 0.0061205986201649668 -0.14870268040820087 0.0077787011046108528 0.099513128249647767 -0.089424806666303397 0.023443354186331779 -0.033841546210476171 -0.091369495625845842 -0.065185201093925269 -0.011774832635085726 -0.01268013593829866 -0.067409833691811388 -0.036838717982924582 0.085301098540807418 0.094927778658445983 -0.033521408965385982 -0.090116993205248144 0.010178724520142632 0.0097479720339011238 -0.057027310477133955 0.032494647938167608 -0.046105099562204238 -0.07152936961047289
leaf_count=177016 2197746 37069 1787877 266554 5524 28553 952006 785361 29527 1500365 81116 12061085 75122 3016461 10378 7783479 71553 2206223 1530729 1787240 8956 26437 109702 1590120 170699 520301 41129 312522 10457016 7022698
internal_value=0 -0.406428 -0.59622 0.667965 -0.169857 -0.640454 -0.583496 -0.560133 0.18684 -0.0654344 0.829576 -0.870376 -0.487245 -0.206839 0.78661 -0.532854 -0.628618 0.0301743 -0.505507 -0.211636 -0.0549757 0.893497 -0.49308 -0.840794 0.30219 0.1473 0.333265 0.139575 -0.451601 -0.760374
internal_count=56650564 55815950 41903444 834614 13912506 41829560 4149932 29698793 486944 9762574 347670 12130767 20888218 5214207 73884 18315617 4144408 4548367 2482735 2572601 2735480 36815 139229 1661673 347715 529257 69682 1812887 10532138 8810575
cat_boundaries=0 7 17 32 37 43 59 87 102 107 123 127 132 148 163 169 174 190 206 222 228 232 247 275 277 281 296 303
cat_threshold=537461793 1075128456 1589508 6661 135397376 0 1024 219548544 880820273 272892930 738214048 1077936128 0 0 0 0 134217728 0 0 0 20987904 0 2048 262144 0 0 536870912 142606337 167772160 134217728 33 2 577725697 262144 0 8192 134225920 39804992 536875264 1048592 1 1052672 2048 131080 0 0 554172960 33685505 278529 1056768 2621696 8 0 134218752 4112 4194432 2 2147487746 832 560866369 134479936 2148667392 136339457 150994944 0 64 0 0 0 0 0 0 0 0 0 0 0 0 0 0 0 0 4096 0 0 0 4 0 0 0 33573376 33554945 0 0 0 16778308 2147483648 17408 136314880 134217856 1686110208 536875268 537460736 1075120128 16388 512 1179648 1074003968 0 0 150999040 1024 0 0 0 0 0 0 0 262144 0 4096 64 4259904 256 0 1 38273024 0 0 0 134217728 2129920 0 0 1212153856 0 262144 134217728 0 2359296 536870912 136314880 0 4194304 1073741824 4370 256 1073741824 0 0 202543104 0 0 134807552 12288 23068676 0 0 134218240 458752 8929312 1613269504 2484113994 131656 0 0 0 2048 543686656 262144 0 8192 8192 0 0 0 2147614752 131136 0 134217728 537919744 1100 2684354560 8389664 0 4194304 0 1076101120 770 1074012160 0 0 402657280 4194304 4202496 134217728 12288 0 0 536870912 167772160 33947648 1141375265 2654224 131072 2097152 0 0 3305111552 131136 270336 8388608 1049856 0 0 32 16777232 0 0 262178 2 40962 131072 0 256 8192 65536 2147485876 2243153172 100704869 4194308 0 0 0 1090535424 0 0 0 0 1024 0 2098176 256 4194304 0 1073741824 556269569 134479936 4096 134217728 134217728 0 64 0 0 0 0 0 0 0 0 0 0 0 0 0 0 0 0 4096 0 0 0 4 3422558362 34865 135531136 0 268436480 201326592 1073741824 0 0 0 0 0 65536 0 0 0 0 0 262144 0 1073741824 41951236 16777280 8 16 0 0 65536
shrinkage=0.1


Tree=25
num_leaves=31
num_cat=27
split_feature=0 0 4 2 1 1 2 4 0 1 2 2 1 1 1 2 2 2 1 0 2 2 4 1 1 1 0 2 2 2
split_gain=1.10651e+06 218054 155673 104721 89493.4 52438.5 29741.4 27705.2 26287.5 23111.2 20977.1 19427.9 17744.4 16064.1 14418.4 13608.6 12366.1 9772.1 8713.9 8341.09 8113.88 7037.43 7034.73 6262.13 5005.68 5004.63 4996.45 4895.16 4845.34 4605.73
threshold=0 1 1967.0000000000002 2 3 4 5 912.50000000000011 6 7 8 9 10 11 12 13 14 15 16 17 18 19 4742.0000000000009 20 21 22 23 24 25 26
decision_type=5 5 2 5 5 5 5 2 5 5 5 5 5 5 5 5 5 5 5 5 5 5 2 5 5 5 5 5 5 5
left_child=3 4 15 9 10 6 26 -6 -5 -1 13 25 20 -2 17 -3 -14 -9 -11 -17 -8 -16 28 -24 -13 -7 -4 -15 -12 -25
right_child=1 2 5 8 7 11 12 14 -10 18 22 24 16 27 21 19 -18 -19 -20 -21 -22 -23 23 29 -26 -27 -28 -29 -30 -31
leaf_value=0.031551471212519215 -0.0015512434340530703 -0.059374229439528595 -0.093407014013802289 0.065695865002330087 0.084612878499886524 0.067850509866951542 0.002587481644765311 -0.025087786227611854 0.098457785819167781 -0.13859668335927841 -0.0083361837467756349 -0.077548088500330264 -0.063796336161161704 -0.019869190999704148 -0.011563199430898449 -0.072882293082165803 -0.043118469379873597 -0.059299865056440942 -0.019083625811612655 0.093079885327816053 -0.036291916029679731 -0.087136538582796574 0.010345342077541404 0.01493276939189735 -0.094939338383630278 -0.053233924900379606 -0.068572195665420402 -0.040218730097209075 0.094207395630275928 -0.021561893290389871
leaf_count=285978 2932000 39213 1787857 266554 6842 31418 931088 1015307 81116 28098 14201 5220039 6691563 2267229 72581 11278 11623873 1869892 172868 24587 1641513 1593829 1984611 178767 6833977 45610 7022622 1416772 7854 551427
internal_value=0 -0.38033 -0.568144 0.639991 -0.155318 -0.610173 -0.52938 -0.523017 0.806851 0.171123 -0.0516365 -0.848361 -0.457329 -0.14502 -0.562218 0.748958 -0.502172 -0.44547 -0.284411 0.865417 -0.193802 -0.808378 0.0710372 0.0551696 -0.873563 0.268715 -0.732248 -0.264327 0.631169 -0.113336
internal_count=56650564 55815950 41904638 834614 13911312 41829560 29698516 4558451 347670 486944 9352861 12131044 20888037 6616001 4551609 75078 18315436 2885199 200966 35865 2572601 1666410 2736860 2714805 12054016 77028 8810479 3684001 22055 730194
cat_boundaries=0 7 17 32 37 43 59 64 92 107 123 127 132 138 154 170 186 190 194 210 225 227 234 236 243 255 271 287
cat_threshold=537461793 1075128456 1589508 6661 135397376 0 1024 219548544 880820273 4457474 738214048 1077944320 0 0 0 0 134217728 0 0 0 20987904 0 2048 262144 0 0 536870912 142606337 167772160 134217728 33 2 577725440 262144 0 8192 134225920 39804992 536875264 1048576 1 1052672 2048 131080 0 0 554172960 33685505 278529 1056768 2621696 8 0 134218752 4112 4194432 2 2147487746 832 537460736 1075120128 16388 512 1179648 560472065 134479936 2148536320 136323073 134217728 0 64 0 0 0 0 0 0 0 0 0 0 0 0 0 0 0 0 4096 0 0 0 4 0 0 0 2248165888 33555009 0 8388608 256 16778308 2147483648 17440 136314880 128 1686110208 536875268 1074003968 0 0 150999040 1024 0 0 0 0 0 0 0 262144 32 4096 64 4259904 256 0 1 38273024 0 0 8192 134217728 2484114250 131656 0 0 0 2048 2392064 0 0 1212155904 0 262144 134217728 1 2359296 536870912 136314880 0 0 1073741824 4370 256 794624 0 0 272629760 4198596 4194304 0 262144 512 536870912 1048896 34078720 301989892 1140850945 262160 131091 0 0 0 2151809056 131136 0 134217728 537919744 1100 536870912 8389664 256 0 0 1076101120 258 2228 2243153172 100704869 4194308 8429570 131072 268435456 256 1074012160 0 0 469766144 4194880 4202496 134217728 12288 0 0 536870912 167772160 33947648 1141375265 2654224 131072 0 0 0 1090535424 0 0 0 0 1024 0 2098176 256 4194304 0 1073741824 4726784 262144 335582466 8 2202009872 136347648 16908288 0 64 3422558362 34865 41951236 16777280 8 16 0 0 65536 0 0 0 2214610944 64 0 8388608 256 1028 2147483648 16416 2097152 2097152 0 0 1077936128 0 0 0 0 0 0 0 16 134217728 0 32 258 1073741824 0 0 0 0 262144 0 537920512 0 0 0 0 4194304 0 1073741824 512
shrinkage=0.1


Tree=26
num_leaves=31
num_cat=11
split_feature=0 3 0 3 0 4 3 4 5 0 5 0 0 0 5 0 3 0 5 3 0 5 3 3 3 3 0 5 3 3
split_gain=949190 261964 241772 87619.2 76329.1 41922.8 32987.1 31835.2 29247.8 28698 24168.8 19768.9 16817.4 16121.8 15194.2 12637.9 8973.58 8585.13 8301.56 7844.78 7535.07 7436.31 10114.8 8229.82 7430.33 6871.88 6558.22 5721.42 5696.79 5686.78
threshold=0 227.50000000000003 1 95.500000000000014 2 8899.0000000000018 4566.0000000000009 1967.0000000000002 1.5000000000000002 3 3.5000000000000004 4 5 6 2.5000000000000004 7 26.500000000000004 8 2.5000000000000004 228590.00000000003 9 6.5000000000000009 228590.00000000003 321511.50000000006 391.50000000000006 558.50000000000011 10 1.5000000000000002 97076.000000000015 228590.00000000003
decision_type=5 2 5 2 5 2 2 2 2 5 2 5 5 5 2 5 2 5 2 2 5 2 2 2 2 2 5 2 2 2
left_child=3 5 6 -1 -5 -2 10 20 11 21 12 16 25 18 15 -9 -7 -10 -6 28 -4 22 -8 -24 -17 -3 -27 -14 -15 -11
right_child=1 2 7 4 13 8 9 14 17 29 -12 -13 27 19 -16 24 -18 -19 -20 -21 -22 -23 23 -25 -26 26 -28 -29 -30 -31
leaf_value=0.094384872770276365 0.095063423951431497 0.013648762933188908 -0.14143596240765532 0.095131283968988511 0.047359260604632351 0.065860793627586706 -0.0090586387699538428 -0.052518035937621922 -0.0044352901040809944 0.035442377436568959 -0.068211154325071299 -0.0068819452730186931 -0.030794566229691803 0.0036544887724995739 -0.080439546271394213 -0.030672261263365322 0.029380698096156621 -0.056945592287579574 0.0057008576527779967 0.076908232677156907 0.037725965081613078 -0.036915019674169804 0.13454014467148495 -0.0094858063153154693 -0.072964870285223984 0.010712502164092429 -0.021317835394984715 -0.054284671560243775 -0.15300585613064724 0.11310136688349964
leaf_count=109109 30481 337763 19186 41881 163346 139975 3246589 10500391 436704 511794 1365750 667966 3829985 444160 13809251 614416 764516 518299 65762 11174 51583 804695 33096 49725 14204999 224400 2349079 1259165 7505 37819
internal_value=0 -0.355876 -0.440178 0.61101 0.404563 0.267737 -0.19733 -0.666983 0.164282 -0.0239393 -0.287077 0.305298 -0.243277 0.227159 -0.6822 -0.626513 0.443759 -0.238199 0.390495 0.061043 0.254932 -0.11323 -0.064969 0.714523 -0.707868 -0.122852 -0.166774 -0.354343 0.023436 0.420586
internal_count=56650564 55807627 53249686 842937 733828 2557941 14049860 39199826 2527460 4683718 9366142 1572457 8000392 691947 39129057 25319806 904491 955003 229108 462839 70769 4134105 3329410 82821 14819415 2911242 2573479 5089150 451665 549613
cat_boundaries=0 7 12 16 19 21 26 33 43 46 55 57
cat_threshold=537461793 1075128456 1589508 536877605 135397376 0 1024 223742848 343949361 272891907 0 4194304 1 262280 1048832 5 201722752 16400 4194304 279438 67141664 768 16401 0 0 4194304 524288 1074857984 16388 2048 134217728 0 1024 57348 536870912 1073742848 16384 64 2098209 8388608 256 0 134217728 403973000 8388640 1073741824 1084260416 132096 133120 67109120 1074004480 0 0 512 132096 256 16384
shrinkage=0.1


Tree=27
num_leaves=31
num_cat=18
split_feature=2 3 2 3 1 1 2 2 1 4 1 1 4 2 3 4 1 2 3 3 2 3 4 2 3 1 1 2 3 2
split_gain=816014 171859 166532 71564.4 68400 66543.9 38224.1 37956.8 31962.2 18920.3 15700.8 15254.7 14530.6 14066.6 13693.3 13053 12681 11233 11128.9 10804.1 12546.6 9792.62 9181.66 8683.61 8481.53 8607.76 8144.72 7660 7378.53 7334.21
threshold=0 116.50000000000001 1 355.50000000000006 2 3 4 5 6 912.50000000000011 7 8 9971.0000000000018 9 12.500000000000002 282609.50000000006 10 11 492.50000000000006 4419.0000000000009 12 670.50000000000011 10934.500000000002 13 2583.5000000000005 14 15 16 7462.5000000000009 17
decision_type=5 2 5 2 5 5 5 5 5 2 5 5 2 5 2 2 5 5 2 2 5 2 2 5 2 5 5 5 2 5
left_child=3 8 5 -1 6 11 15 12 14 -6 27 29 -5 -10 -2 -4 17 28 -8 26 -21 -17 -12 -23 -7 -26 -13 -9 -11 -3
right_child=1 2 4 7 9 24 18 10 13 16 22 19 -14 -15 -16 21 -18 -19 -20 20 -22 23 -24 -25 25 -27 -28 -29 -30 -31
leaf_value=0.089905203552722079 0.076578923014104322 0.017191175052982715 -0.0065581061830240032 -0.003020266921301403 0.070798973480293473 -0.07478268310490814 -0.021767963381708083 0.032937064944862447 0.032211851033273793 -0.056786936196943597 0.016767194886711769 -0.012648067452513418 0.082787496962660273 -0.047650640248426329 0.031433813265994509 0.00019286740857830267 -0.085584056073231884 -0.07933301325047809 -0.058184990111374416 0.029675545812970789 -0.014186340307571136 -0.030304686074882382 -0.059217225470485316 -0.063386560846916878 -0.022082255322947386 -0.068834127455707869 -0.036695289570360334 -0.032779115290436658 -0.012496177063550745 -0.0036793049609355646
leaf_count=182370 79282 711020 1960344 35325 8590 1584816 1276048 269662 107834 3164361 42787 1657202 62174 408247 827874 753458 10555086 4370808 14856488 257614 1398400 2912741 255420 2047041 835096 730704 1847348 151022 674544 2626858
internal_value=0 -0.319332 -0.375402 0.646035 -0.536995 -0.148777 -0.409045 0.380032 0.298629 -0.738391 0.170429 -0.0660151 0.729416 -0.201282 0.453577 -0.235224 -0.751083 -0.632574 -0.54452 -0.155202 -0.00165126 -0.343437 -0.268749 -0.40875 -0.573553 -0.415875 -0.236307 0.280765 -0.486823 0.04195
